<?xml version="1.0"?>
<opencv_storage>
<cascade>
  <stageType>BOOST</stageType>
  <featureType>HAAR</featureType>
  <height>24</height>
  <width>24</width>
  <stageParams>
    <boostType>GAB</boostType>
    <minHitRate>9.9500000476837158e-01</minHitRate>
    <maxFalseAlarm>5.0000000000000000e-01</maxFalseAlarm>
    <weightTrimRate>9.4999998807907104e-01</weightTrimRate>
    <maxDepth>1</maxDepth>
    <maxWeakCount>100</maxWeakCount></stageParams>
  <featureParams>
    <maxCatCount>0</maxCatCount>
    <featSize>1</featSize>
    <mode>BASIC</mode></featureParams>
  <stageNum>23</stageNum>
  <stages>
    <!-- stage 0 -->
    <_>
      <maxWeakCount>2</maxWeakCount>
      <stageThreshold>6.8092234432697296e-02</stageThreshold>
      <weakClassifiers>
        <_>
          <internalNodes>
            0 -1 79 1.1988096870481968e-02</internalNodes>
          <leafValues>
            -8.1902551651000977e-01 9.4503813982009888e-01</leafValues></_>
        <_>
          <internalNodes>
            0 -1 91 2.6895064860582352e-02</internalNodes>
          <leafValues>
            -6.6778731346130371e-01 8.8711774349212646e-01</leafValues></_></weakClassifiers></_>
    <!-- stage 1 -->
    <_>
      <maxWeakCount>3</maxWeakCount>
      <stageThreshold>-4.3971723318099976e-01</stageThreshold>
      <weakClassifiers>
        <_>
          <internalNodes>
            0 -1 44 4.3972276151180267e-02</internalNodes>
          <leafValues>
            -7.6525819301605225e-01 8.9211928844451904e-01</leafValues></_>
        <_>
          <internalNodes>
            0 -1 142 6.8647721782326698e-03</internalNodes>
          <leafValues>
            -6.5873223543167114e-01 8.0797821283340454e-01</leafValues></_>
        <_>
          <internalNodes>
            0 -1 86 3.1651534140110016e-02</internalNodes>
          <leafValues>
            -6.7310422658920288e-01 7.4037283658981323e-01</leafValues></_></weakClassifiers></_>
    <!-- stage 2 -->
    <_>
      <maxWeakCount>5</maxWeakCount>
      <stageThreshold>-3.8174754381179810e-01</stageThreshold>
      <weakClassifiers>
        <_>
          <internalNodes>
            0 -1 140 3.8873599842190742e-03</internalNodes>
          <leafValues>
            -5.3727507591247559e-01 8.9879155158996582e-01</leafValues></_>
        <_>
          <internalNodes>
            0 -1 69 -2.3804379627108574e-02</internalNodes>
          <leafValues>
            7.6147425174713135e-01 -6.2274950742721558e-01</leafValues></_>
        <_>
          <internalNodes>
            0 -1 235 -3.0758511275053024e-02</internalNodes>
          <leafValues>
            6.9279909133911133e-01 -3.8349539041519165e-01</leafValues></_>
        <_>
          <internalNodes>
            0 -1 72 2.3412421345710754e-02</internalNodes>
          <leafValues>
            -7.1440231800079346e-01 4.2187482118606567e-01</leafValues></_>
        <_>
          <internalNodes>
            0 -1 148 9.0806838124990463e-03</internalNodes>
          <leafValues>
            -5.8434349298477173e-01 4.6515405178070068e-01</leafValues></_></weakClassifiers></_>
    <!-- stage 3 -->
    <_>
      <maxWeakCount>5</maxWeakCount>
      <stageThreshold>-3.4523725509643555e-01</stageThreshold>
      <weakClassifiers>
        <_>
          <internalNodes>
            0 -1 284 5.3831962868571281e-03</internalNodes>
          <leafValues>
            -5.9658122062683105e-01 8.6899346113204956e-01</leafValues></_>
        <_>
          <internalNodes>
            0 -1 21 -1.0271189734339714e-02</internalNodes>
          <leafValues>
            7.4047958850860596e-01 -5.0730097293853760e-01</leafValues></_>
        <_>
          <internalNodes>
            0 -1 108 9.3192979693412781e-03</internalNodes>
          <leafValues>
            -8.0880254507064819e-01 4.8139652609825134e-01</leafValues></_>
        <_>
          <internalNodes>
            0 -1 20 3.1662963330745697e-02</internalNodes>
          <leafValues>
            -4.5283871889114380e-01 6.1565494537353516e-01</leafValues></_>
        <_>
          <internalNodes>
            0 -1 240 1.4708724804222584e-02</internalNodes>
          <leafValues>
            -5.1378214359283447e-01 5.1381170749664307e-01</leafValues></_></weakClassifiers></_>
    <!-- stage 4 -->
    <_>
      <maxWeakCount>8</maxWeakCount>
      <stageThreshold>-4.9552276730537415e-01</stageThreshold>
      <weakClassifiers>
        <_>
          <internalNodes>
            0 -1 201 -5.0029670819640160e-03</internalNodes>
          <leafValues>
            8.5177069902420044e-01 -5.4851484298706055e-01</leafValues></_>
        <_>
          <internalNodes>
            0 -1 51 -8.2119353115558624e-02</internalNodes>
          <leafValues>
            7.2272765636444092e-01 -4.6429100632667542e-01</leafValues></_>
        <_>
          <internalNodes>
            0 -1 255 -7.2645023465156555e-03</internalNodes>
          <leafValues>
            6.4064961671829224e-01 -3.7944436073303223e-01</leafValues></_>
        <_>
          <internalNodes>
            0 -1 71 6.1300927773118019e-03</internalNodes>
          <leafValues>
            -6.9976657629013062e-01 3.7192478775978088e-01</leafValues></_>
        <_>
          <internalNodes>
            0 -1 147 5.9877727180719376e-03</internalNodes>
          <leafValues>
            -6.3475459814071655e-01 3.1401181221008301e-01</leafValues></_>
        <_>
          <internalNodes>
            0 -1 6 1.6356752812862396e-01</internalNodes>
          <leafValues>
            -2.8441163897514343e-01 7.1153861284255981e-01</leafValues></_>
        <_>
          <internalNodes>
            0 -1 181 3.6712666042149067e-03</internalNodes>
          <leafValues>
            -6.0841476917266846e-01 2.8290185332298279e-01</leafValues></_>
        <_>
          <internalNodes>
            0 -1 152 1.9194135442376137e-02</internalNodes>
          <leafValues>
            2.1671417355537415e-01 -7.2742891311645508e-01</leafValues></_></weakClassifiers></_>
    <!-- stage 5 -->
    <_>
      <maxWeakCount>9</maxWeakCount>
      <stageThreshold>-6.0510480403900146e-01</stageThreshold>
      <weakClassifiers>
        <_>
          <internalNodes>
            0 -1 74 3.2111119944602251e-03</internalNodes>
          <leafValues>
            -6.8937331438064575e-01 8.3482944965362549e-01</leafValues></_>
        <_>
          <internalNodes>
            0 -1 138 1.5952013432979584e-02</internalNodes>
          <leafValues>
            5.8125698566436768e-01 -6.8321955204010010e-01</leafValues></_>
        <_>
          <internalNodes>
            0 -1 39 4.8200309276580811e-02</internalNodes>
          <leafValues>
            -2.9897511005401611e-01 7.3478120565414429e-01</leafValues></_>
        <_>
          <internalNodes>
            0 -1 86 5.1721230149269104e-02</internalNodes>
          <leafValues>
            -5.2372479438781738e-01 4.8610311746597290e-01</leafValues></_>
        <_>
          <internalNodes>
            0 -1 147 9.9901314824819565e-03</internalNodes>
          <leafValues>
            -4.8430952429771423e-01 4.0893340110778809e-01</leafValues></_>
        <_>
          <internalNodes>
            0 -1 209 7.2854449972510338e-03</internalNodes>
          <leafValues>
            -7.9557311534881592e-01 1.9650231301784515e-01</leafValues></_>
        <_>
          <internalNodes>
            0 -1 33 7.5382729992270470e-03</internalNodes>
          <leafValues>
            -6.6607266664505005e-01 2.0547261834144592e-01</leafValues></_>
        <_>
          <internalNodes>
            0 -1 102 -3.9332426968030632e-04</internalNodes>
          <leafValues>
            3.1066638231277466e-01 -4.8289522528648376e-01</leafValues></_>
        <_>
          <internalNodes>
            0 -1 276 -1.5056778211146593e-03</internalNodes>
          <leafValues>
            1.9660288095474243e-01 -6.3908088207244873e-01</leafValues></_></weakClassifiers></_>
    <!-- stage 6 -->
    <_>
      <maxWeakCount>12</maxWeakCount>
      <stageThreshold>-6.4110565185546875e-01</stageThreshold>
      <weakClassifiers>
        <_>
          <internalNodes>
            0 -1 111 7.5871963053941727e-03</internalNodes>
          <leafValues>
            -3.6501079797744751e-01 8.3436250686645508e-01</leafValues></_>
        <_>
          <internalNodes>
            0 -1 7 1.4580565690994263e-01</internalNodes>
          <leafValues>
            -1.1601831763982773e-01 7.7667462825775146e-01</leafValues></_>
        <_>
          <internalNodes>
            0 -1 203 -9.7865164279937744e-03</internalNodes>
          <leafValues>
            3.6206436157226563e-01 -6.4044976234436035e-01</leafValues></_>
        <_>
          <internalNodes>
            0 -1 106 1.1459834873676300e-02</internalNodes>
          <leafValues>
            -5.7462644577026367e-01 3.0908113718032837e-01</leafValues></_>
        <_>
          <internalNodes>
            0 -1 279 -1.1783961206674576e-01</internalNodes>
          <leafValues>
            7.1445864439010620e-01 -2.8213629126548767e-01</leafValues></_>
        <_>
          <internalNodes>
            0 -1 53 2.3696001619100571e-02</internalNodes>
          <leafValues>
            -5.8237433433532715e-01 3.1720536947250366e-01</leafValues></_>
        <_>
          <internalNodes>
            0 -1 187 3.6051680799573660e-03</internalNodes>
          <leafValues>
            -2.8526023030281067e-01 5.3423523902893066e-01</leafValues></_>
        <_>
          <internalNodes>
            0 -1 75 3.1331069767475128e-02</internalNodes>
          <leafValues>
            -7.5131249427795410e-01 1.7815774679183960e-01</leafValues></_>
        <_>
          <internalNodes>
            0 -1 96 -3.0927471816539764e-03</internalNodes>
          <leafValues>
            -7.6891332864761353e-01 1.5110199153423309e-01</leafValues></_>
        <_>
          <internalNodes>
            0 -1 222 -1.9111253786832094e-03</internalNodes>
          <leafValues>
            2.2613400220870972e-01 -5.2651780843734741e-01</leafValues></_>
        <_>
          <internalNodes>
            0 -1 42 -1.0164466220885515e-03</internalNodes>
          <leafValues>
            -6.3591849803924561e-01 1.8315942585468292e-01</leafValues></_>
        <_>
          <internalNodes>
            0 -1 248 5.1848003640770912e-03</internalNodes>
          <leafValues>
            -4.7377043962478638e-01 2.3630808293819427e-01</leafValues></_></weakClassifiers></_>
    <!-- stage 7 -->
    <_>
      <maxWeakCount>13</maxWeakCount>
      <stageThreshold>-3.8677492737770081e-01</stageThreshold>
      <weakClassifiers>
        <_>
          <internalNodes>
            0 -1 87 3.5074941813945770e-02</internalNodes>
          <leafValues>
            -6.3515506684780121e-02 8.4089493751525879e-01</leafValues></_>
        <_>
          <internalNodes>
            0 -1 250 8.7872147560119629e-03</internalNodes>
          <leafValues>
            -4.2071136832237244e-01 5.5232775211334229e-01</leafValues></_>
        <_>
          <internalNodes>
            0 -1 280 -1.0659104585647583e-01</internalNodes>
          <leafValues>
            7.2244465351104736e-01 -2.7039393782615662e-01</leafValues></_>
        <_>
          <internalNodes>
            0 -1 284 1.1525512672960758e-02</internalNodes>
          <leafValues>
            -6.4060097932815552e-01 2.6805460453033447e-01</leafValues></_>
        <_>
          <internalNodes>
            0 -1 170 1.7838943749666214e-03</internalNodes>
          <leafValues>
            -4.9719986319541931e-01 3.1226095557212830e-01</leafValues></_>
        <_>
          <internalNodes>
            0 -1 50 1.9720125943422318e-02</internalNodes>
          <leafValues>
            -2.6017206907272339e-01 5.4998701810836792e-01</leafValues></_>
        <_>
          <internalNodes>
            0 -1 125 8.9365541934967041e-03</internalNodes>
          <leafValues>
            -5.1886773109436035e-01 2.3048768937587738e-01</leafValues></_>
        <_>
          <internalNodes>
            0 -1 162 5.3583541885018349e-03</internalNodes>
          <leafValues>
            -2.3365721106529236e-01 5.7678782939910889e-01</leafValues></_>
        <_>
          <internalNodes>
            0 -1 129 9.2320730909705162e-03</internalNodes>
          <leafValues>
            2.1180012822151184e-01 -6.1818903684616089e-01</leafValues></_>
        <_>
          <internalNodes>
            0 -1 25 7.3599368333816528e-03</internalNodes>
          <leafValues>
            -7.6985597610473633e-01 1.5562705695629120e-01</leafValues></_>
        <_>
          <internalNodes>
            0 -1 225 5.7224789634346962e-03</internalNodes>
          <leafValues>
            1.6693294048309326e-01 -6.5163260698318481e-01</leafValues></_>
        <_>
          <internalNodes>
            0 -1 293 4.3010697700083256e-03</internalNodes>
          <leafValues>
            1.4012850821018219e-01 -7.2508078813552856e-01</leafValues></_>
        <_>
          <internalNodes>
            0 -1 11 -2.9547526501119137e-03</internalNodes>
          <leafValues>
            -5.6384873390197754e-01 1.9008921086788177e-01</leafValues></_></weakClassifiers></_>
    <!-- stage 8 -->
    <_>
      <maxWeakCount>13</maxWeakCount>
      <stageThreshold>-4.8304530978202820e-01</stageThreshold>
      <weakClassifiers>
        <_>
          <internalNodes>
            0 -1 36 1.7799638211727142e-02</internalNodes>
          <leafValues>
            8.1388199329376221e-01 -6.0754716396331787e-01</leafValues></_>
        <_>
          <internalNodes>
            0 -1 240 1.4552589505910873e-02</internalNodes>
          <leafValues>
            -3.5438859462738037e-01 5.5270266532897949e-01</leafValues></_>
        <_>
          <internalNodes>
            0 -1 3 5.0764429569244385e-01</internalNodes>
          <leafValues>
            -3.1547620892524719e-01 6.3452959060668945e-01</leafValues></_>
        <_>
          <internalNodes>
            0 -1 265 -4.9262242391705513e-03</internalNodes>
          <leafValues>
            5.1864248514175415e-01 -3.1210500001907349e-01</leafValues></_>
        <_>
          <internalNodes>
            0 -1 14 6.1033293604850769e-03</internalNodes>
          <leafValues>
            -5.5507642030715942e-01 2.8985676169395447e-01</leafValues></_>
        <_>
          <internalNodes>
            0 -1 144 2.5385543704032898e-02</internalNodes>
          <leafValues>
            -4.3274611234664917e-01 3.3190730214118958e-01</leafValues></_>
        <_>
          <internalNodes>
            0 -1 64 -1.1365598998963833e-02</internalNodes>
          <leafValues>
            -5.8928650617599487e-01 2.1828998625278473e-01</leafValues></_>
        <_>
          <internalNodes>
            0 -1 95 1.8500788137316704e-02</internalNodes>
          <leafValues>
            -7.2996920347213745e-01 1.8608066439628601e-01</leafValues></_>
        <_>
          <internalNodes>
            0 -1 198 2.1109352819621563e-03</internalNodes>
          <leafValues>
            1.3511425256729126e-01 -6.8701964616775513e-01</leafValues></_>
        <_>
          <internalNodes>
            0 -1 244 3.0372671782970428e-02</internalNodes>
          <leafValues>
            -6.9037038087844849e-01 1.4832186698913574e-01</leafValues></_>
        <_>
          <internalNodes>
            0 -1 193 3.8884384557604790e-03</internalNodes>
          <leafValues>
            -2.1410220861434937e-01 5.6503379344940186e-01</leafValues></_>
        <_>
          <internalNodes>
            0 -1 194 -7.9674534499645233e-03</internalNodes>
          <leafValues>
            7.3265111446380615e-01 -1.6944952309131622e-01</leafValues></_>
        <_>
          <internalNodes>
            0 -1 85 1.1723201023414731e-03</internalNodes>
          <leafValues>
            -3.9498507976531982e-01 3.0021104216575623e-01</leafValues></_></weakClassifiers></_>
    <!-- stage 9 -->
    <_>
      <maxWeakCount>13</maxWeakCount>
      <stageThreshold>-6.2615525722503662e-01</stageThreshold>
      <weakClassifiers>
        <_>
          <internalNodes>
            0 -1 220 -2.9405115637928247e-03</internalNodes>
          <leafValues>
            8.3319085836410522e-01 -1.8949343264102936e-01</leafValues></_>
        <_>
          <internalNodes>
            0 -1 104 2.7630287222564220e-03</internalNodes>
          <leafValues>
            -1.5581828355789185e-01 6.2910348176956177e-01</leafValues></_>
        <_>
          <internalNodes>
            0 -1 19 4.0442451834678650e-02</internalNodes>
          <leafValues>
            -5.0150418281555176e-01 3.4239360690116882e-01</leafValues></_>
        <_>
          <internalNodes>
            0 -1 18 1.4815032482147217e-01</internalNodes>
          <leafValues>
            -2.2158575057983398e-01 6.9054603576660156e-01</leafValues></_>
        <_>
          <internalNodes>
            0 -1 110 1.2847753241658211e-02</internalNodes>
          <leafValues>
            -6.7385327816009521e-01 2.3654450476169586e-01</leafValues></_>
        <_>
          <internalNodes>
            0 -1 184 -1.1072340421378613e-03</internalNodes>
          <leafValues>
            -7.8673124313354492e-01 1.1754913628101349e-01</leafValues></_>
        <_>
          <internalNodes>
            0 -1 182 -1.9561096560209990e-03</internalNodes>
          <leafValues>
            -8.1305807828903198e-01 1.4577780663967133e-01</leafValues></_>
        <_>
          <internalNodes>
            0 -1 262 9.5629351562820375e-05</internalNodes>
          <leafValues>
            -4.5816555619239807e-01 2.5360637903213501e-01</leafValues></_>
        <_>
          <internalNodes>
            0 -1 221 -1.6227085143327713e-03</internalNodes>
          <leafValues>
            2.1110741794109344e-01 -5.3753024339675903e-01</leafValues></_>
        <_>
          <internalNodes>
            0 -1 234 -1.3703459408134222e-03</internalNodes>
          <leafValues>
            -6.6652840375900269e-01 1.5935176610946655e-01</leafValues></_>
        <_>
          <internalNodes>
            0 -1 188 4.3035019189119339e-03</internalNodes>
          <leafValues>
            -2.3766553401947021e-01 4.8793646693229675e-01</leafValues></_>
        <_>
          <internalNodes>
            0 -1 191 4.7859204933047295e-03</internalNodes>
          <leafValues>
            -1.8240603804588318e-01 7.2505730390548706e-01</leafValues></_>
        <_>
          <internalNodes>
            0 -1 81 6.4264489337801933e-03</internalNodes>
          <leafValues>
            2.5334876775741577e-01 -4.8023548722267151e-01</leafValues></_></weakClassifiers></_>
    <!-- stage 10 -->
    <_>
      <maxWeakCount>14</maxWeakCount>
      <stageThreshold>-5.7612812519073486e-01</stageThreshold>
      <weakClassifiers>
        <_>
          <internalNodes>
            0 -1 61 2.0765955559909344e-03</internalNodes>
          <leafValues>
            8.1696695089340210e-01 -3.6656892299652100e-01</leafValues></_>
        <_>
          <internalNodes>
            0 -1 290 4.2161182500422001e-03</internalNodes>
          <leafValues>
            -4.3341678380966187e-01 5.1131635904312134e-01</leafValues></_>
        <_>
          <internalNodes>
            0 -1 2 2.2044391930103302e-01</internalNodes>
          <leafValues>
            -1.9601756334304810e-01 7.9189074039459229e-01</leafValues></_>
        <_>
          <internalNodes>
            0 -1 227 -5.6352431420236826e-04</internalNodes>
          <leafValues>
            3.1977161765098572e-01 -4.7247451543807983e-01</leafValues></_>
        <_>
          <internalNodes>
            0 -1 16 5.8903593569993973e-02</internalNodes>
          <leafValues>
            -2.4664404988288879e-01 5.4918408393859863e-01</leafValues></_>
        <_>
          <internalNodes>
            0 -1 112 1.5298487851396203e-03</internalNodes>
          <leafValues>
            -7.2591292858123779e-01 1.5551061928272247e-01</leafValues></_>
        <_>
          <internalNodes>
            0 -1 48 1.1241994798183441e-03</internalNodes>
          <leafValues>
            1.4658156037330627e-01 -7.2479343414306641e-01</leafValues></_>
        <_>
          <internalNodes>
            0 -1 89 5.5388589389622211e-03</internalNodes>
          <leafValues>
            -3.6415168642997742e-01 2.8882902860641479e-01</leafValues></_>
        <_>
          <internalNodes>
            0 -1 31 3.5157818347215652e-03</internalNodes>
          <leafValues>
            -5.6355082988739014e-01 1.9329623878002167e-01</leafValues></_>
        <_>
          <internalNodes>
            0 -1 223 -5.7897588703781366e-04</internalNodes>
          <leafValues>
            1.1927372217178345e-01 -7.2279250621795654e-01</leafValues></_>
        <_>
          <internalNodes>
            0 -1 228 8.2188611850142479e-04</internalNodes>
          <leafValues>
            1.5067870914936066e-01 -6.3972777128219604e-01</leafValues></_>
        <_>
          <internalNodes>
            0 -1 303 8.8954821694642305e-04</internalNodes>
          <leafValues>
            1.2661796808242798e-01 -7.7994680404663086e-01</leafValues></_>
        <_>
          <internalNodes>
            0 -1 303 -9.5022562891244888e-04</internalNodes>
          <leafValues>
            -8.0154973268508911e-01 1.1562741547822952e-01</leafValues></_>
        <_>
          <internalNodes>
            0 -1 23 9.0879760682582855e-04</internalNodes>
          <leafValues>
            -5.8595001697540283e-01 1.6761575639247894e-01</leafValues></_></weakClassifiers></_>
    <!-- stage 11 -->
    <_>
      <maxWeakCount>15</maxWeakCount>
      <stageThreshold>-2.6077401638031006e-01</stageThreshold>
      <weakClassifiers>
        <_>
          <internalNodes>
            0 -1 177 1.7539165914058685e-02</internalNodes>
          <leafValues>
            8.3341610431671143e-01 1.2012012302875519e-02</leafValues></_>
        <_>
          <internalNodes>
            0 -1 17 7.1849681437015533e-02</internalNodes>
          <leafValues>
            -7.5649008154869080e-02 6.7736530303955078e-01</leafValues></_>
        <_>
          <internalNodes>
            0 -1 289 -3.7683497648686171e-03</internalNodes>
          <leafValues>
            3.1064838171005249e-01 -5.1950812339782715e-01</leafValues></_>
        <_>
          <internalNodes>
            0 -1 141 -1.1709528043866158e-03</internalNodes>
          <leafValues>
            2.8398501873016357e-01 -5.4072898626327515e-01</leafValues></_>
        <_>
          <internalNodes>
            0 -1 94 9.3336664140224457e-03</internalNodes>
          <leafValues>
            -6.7263299226760864e-01 1.6027107834815979e-01</leafValues></_>
        <_>
          <internalNodes>
            0 -1 149 2.4103090167045593e-02</internalNodes>
          <leafValues>
            -3.5473617911338806e-01 3.2914802432060242e-01</leafValues></_>
        <_>
          <internalNodes>
            0 -1 55 3.4890132956206799e-03</internalNodes>
          <leafValues>
            1.7584067583084106e-01 -6.7319232225418091e-01</leafValues></_>
        <_>
          <internalNodes>
            0 -1 135 1.0505581740289927e-03</internalNodes>
          <leafValues>
            -4.9112728238105774e-01 2.0211847126483917e-01</leafValues></_>
        <_>
          <internalNodes>
            0 -1 159 3.2328036613762379e-03</internalNodes>
          <leafValues>
            -2.2493621706962585e-01 4.5957362651824951e-01</leafValues></_>
        <_>
          <internalNodes>
            0 -1 300 1.0298091219738126e-03</internalNodes>
          <leafValues>
            1.4516764879226685e-01 -7.1580141782760620e-01</leafValues></_>
        <_>
          <internalNodes>
            0 -1 169 2.6817973703145981e-03</internalNodes>
          <leafValues>
            1.4098002016544342e-01 -6.3095259666442871e-01</leafValues></_>
        <_>
          <internalNodes>
            0 -1 168 -1.8497888231649995e-04</internalNodes>
          <leafValues>
            -5.5517619848251343e-01 1.7564547061920166e-01</leafValues></_>
        <_>
          <internalNodes>
            0 -1 164 6.2008583918213844e-03</internalNodes>
          <leafValues>
            -1.8518155813217163e-01 5.8659094572067261e-01</leafValues></_>
        <_>
          <internalNodes>
            0 -1 119 -7.9344045370817184e-03</internalNodes>
          <leafValues>
            5.2602958679199219e-01 -1.9848792254924774e-01</leafValues></_>
        <_>
          <internalNodes>
            0 -1 47 9.1717008035629988e-04</internalNodes>
          <leafValues>
            1.8691979348659515e-01 -5.8339154720306396e-01</leafValues></_></weakClassifiers></_>
    <!-- stage 12 -->
    <_>
      <maxWeakCount>16</maxWeakCount>
      <stageThreshold>-5.2352339029312134e-01</stageThreshold>
      <weakClassifiers>
        <_>
          <internalNodes>
            0 -1 282 4.6414388343691826e-03</internalNodes>
          <leafValues>
            -1.5384615957736969e-01 8.2004833221435547e-01</leafValues></_>
        <_>
          <internalNodes>
            0 -1 41 -1.0232485830783844e-02</internalNodes>
          <leafValues>
            5.2240598201751709e-01 -3.5324648022651672e-01</leafValues></_>
        <_>
          <internalNodes>
            0 -1 287 -6.1434172093868256e-02</internalNodes>
          <leafValues>
            6.2601077556610107e-01 -2.7330401539802551e-01</leafValues></_>
        <_>
          <internalNodes>
            0 -1 224 -1.6773949610069394e-03</internalNodes>
          <leafValues>
            3.1139609217643738e-01 -5.4870516061782837e-01</leafValues></_>
        <_>
          <internalNodes>
            0 -1 50 2.3743730038404465e-02</internalNodes>
          <leafValues>
            -2.5459280610084534e-01 5.6591957807540894e-01</leafValues></_>
        <_>
          <internalNodes>
            0 -1 253 -1.0718267876654863e-03</internalNodes>
          <leafValues>
            -6.1491352319717407e-01 1.6553336381912231e-01</leafValues></_>
        <_>
          <internalNodes>
            0 -1 77 1.1324932798743248e-02</internalNodes>
          <leafValues>
            -6.5432035923004150e-01 1.4658565819263458e-01</leafValues></_>
        <_>
          <internalNodes>
            0 -1 130 -1.8508373759686947e-03</internalNodes>
          <leafValues>
            -6.3644522428512573e-01 1.7168731987476349e-01</leafValues></_>
        <_>
          <internalNodes>
            0 -1 204 5.6045800447463989e-03</internalNodes>
          <leafValues>
            1.4277479052543640e-01 -6.2886089086532593e-01</leafValues></_>
        <_>
          <internalNodes>
            0 -1 154 6.0494053177535534e-03</internalNodes>
          <leafValues>
            -4.9873170256614685e-01 1.6315220296382904e-01</leafValues></_>
        <_>
          <internalNodes>
            0 -1 239 -1.3581238687038422e-02</internalNodes>
          <leafValues>
            -5.7866585254669189e-01 1.4749778807163239e-01</leafValues></_>
        <_>
          <internalNodes>
            0 -1 37 1.2527334038168192e-03</internalNodes>
          <leafValues>
            1.3046436011791229e-01 -6.5495294332504272e-01</leafValues></_>
        <_>
          <internalNodes>
            0 -1 38 -2.3374422453343868e-03</internalNodes>
          <leafValues>
            -6.6581100225448608e-01 1.1858455836772919e-01</leafValues></_>
        <_>
          <internalNodes>
            0 -1 185 -4.1179377585649490e-03</internalNodes>
          <leafValues>
            4.2665314674377441e-01 -2.0803709328174591e-01</leafValues></_>
        <_>
          <internalNodes>
            0 -1 57 1.0697748512029648e-03</internalNodes>
          <leafValues>
            -2.9000309109687805e-01 2.9145479202270508e-01</leafValues></_>
        <_>
          <internalNodes>
            0 -1 167 1.0844857431948185e-02</internalNodes>
          <leafValues>
            1.0619411617517471e-01 -8.0344605445861816e-01</leafValues></_></weakClassifiers></_>
    <!-- stage 13 -->
    <_>
      <maxWeakCount>17</maxWeakCount>
      <stageThreshold>-4.4994786381721497e-01</stageThreshold>
      <weakClassifiers>
        <_>
          <internalNodes>
            0 -1 131 -2.3275785148143768e-02</internalNodes>
          <leafValues>
            -4.4961240887641907e-01 8.0789226293563843e-01</leafValues></_>
        <_>
          <internalNodes>
            0 -1 232 -2.5551477447152138e-03</internalNodes>
          <leafValues>
            5.8382034301757813e-01 -1.5076169371604919e-01</leafValues></_>
        <_>
          <internalNodes>
            0 -1 5 4.8925548791885376e-02</internalNodes>
          <leafValues>
            -2.6605761051177979e-01 4.9606129527091980e-01</leafValues></_>
        <_>
          <internalNodes>
            0 -1 175 1.3915172312408686e-03</internalNodes>
          <leafValues>
            -5.3546530008316040e-01 2.3632344603538513e-01</leafValues></_>
        <_>
          <internalNodes>
            0 -1 252 8.9465491473674774e-03</internalNodes>
          <leafValues>
            -5.0811314582824707e-01 2.2122806310653687e-01</leafValues></_>
        <_>
          <internalNodes>
            0 -1 296 3.1803816091269255e-04</internalNodes>
          <leafValues>
            -5.5482417345046997e-01 1.9534327089786530e-01</leafValues></_>
        <_>
          <internalNodes>
            0 -1 43 3.9492752403020859e-03</internalNodes>
          <leafValues>
            -4.8598143458366394e-01 2.1540816128253937e-01</leafValues></_>
        <_>
          <internalNodes>
            0 -1 258 -1.0997503995895386e-02</internalNodes>
          <leafValues>
            -6.6362327337265015e-01 8.4855854511260986e-02</leafValues></_>
        <_>
          <internalNodes>
            0 -1 274 1.5132965927477926e-05</internalNodes>
          <leafValues>
            1.2783575057983398e-01 -6.8167632818222046e-01</leafValues></_>
        <_>
          <internalNodes>
            0 -1 197 -1.4582241419702768e-03</internalNodes>
          <leafValues>
            -6.2964427471160889e-01 1.1227155476808548e-01</leafValues></_>
        <_>
          <internalNodes>
            0 -1 66 -3.0758276116102934e-03</internalNodes>
          <leafValues>
            -5.3825342655181885e-01 1.4382821321487427e-01</leafValues></_>
        <_>
          <internalNodes>
            0 -1 127 -5.7401885278522968e-03</internalNodes>
          <leafValues>
            -7.0529741048812866e-01 1.1348481476306915e-01</leafValues></_>
        <_>
          <internalNodes>
            0 -1 24 4.5017348602414131e-03</internalNodes>
          <leafValues>
            -6.4650148153305054e-01 1.1554152518510818e-01</leafValues></_>
        <_>
          <internalNodes>
            0 -1 156 -1.5760418027639389e-02</internalNodes>
          <leafValues>
            -5.8176243305206299e-01 1.3267156481742859e-01</leafValues></_>
        <_>
          <internalNodes>
            0 -1 161 5.9551177546381950e-03</internalNodes>
          <leafValues>
            -2.1178206801414490e-01 4.5211592316627502e-01</leafValues></_>
        <_>
          <internalNodes>
            0 -1 292 2.7649858966469765e-03</internalNodes>
          <leafValues>
            1.1607092618942261e-01 -8.6181163787841797e-01</leafValues></_>
        <_>
          <internalNodes>
            0 -1 118 4.6153059229254723e-03</internalNodes>
          <leafValues>
            -1.8155954778194427e-01 5.4008316993713379e-01</leafValues></_></weakClassifiers></_>
    <!-- stage 14 -->
    <_>
      <maxWeakCount>17</maxWeakCount>
      <stageThreshold>-3.5544162988662720e-01</stageThreshold>
      <weakClassifiers>
        <_>
          <internalNodes>
            0 -1 205 -7.1431985124945641e-03</internalNodes>
          <leafValues>
            -4.6846845746040344e-01 8.0305880308151245e-01</leafValues></_>
        <_>
          <internalNodes>
            0 -1 267 -3.2600261270999908e-02</internalNodes>
          <leafValues>
            6.5493071079254150e-01 -7.3525346815586090e-02</leafValues></_>
        <_>
          <internalNodes>
            0 -1 105 4.3184831738471985e-03</internalNodes>
          <leafValues>
            -2.9339030385017395e-01 4.4860589504241943e-01</leafValues></_>
        <_>
          <internalNodes>
            0 -1 178 6.3781661447137594e-04</internalNodes>
          <leafValues>
            -4.9227315187454224e-01 2.8073158860206604e-01</leafValues></_>
        <_>
          <internalNodes>
            0 -1 243 -7.8441121149808168e-04</internalNodes>
          <leafValues>
            1.8334051966667175e-01 -6.0369890928268433e-01</leafValues></_>
        <_>
          <internalNodes>
            0 -1 134 -2.2819305304437876e-03</internalNodes>
          <leafValues>
            -6.8422073125839233e-01 1.4279025793075562e-01</leafValues></_>
        <_>
          <internalNodes>
            0 -1 299 -2.6444948161952198e-05</internalNodes>
          <leafValues>
            1.9385592639446259e-01 -5.3832101821899414e-01</leafValues></_>
        <_>
          <internalNodes>
            0 -1 52 3.4725288860499859e-03</internalNodes>
          <leafValues>
            -4.3363159894943237e-01 1.8631331622600555e-01</leafValues></_>
        <_>
          <internalNodes>
            0 -1 162 9.4608925282955170e-03</internalNodes>
          <leafValues>
            -1.5075622498989105e-01 5.8817559480667114e-01</leafValues></_>
        <_>
          <internalNodes>
            0 -1 238 -4.7343978658318520e-03</internalNodes>
          <leafValues>
            -7.7534580230712891e-01 1.1807940155267715e-01</leafValues></_>
        <_>
          <internalNodes>
            0 -1 207 1.4415949583053589e-02</internalNodes>
          <leafValues>
            1.0404773056507111e-01 -7.0354807376861572e-01</leafValues></_>
        <_>
          <internalNodes>
            0 -1 308 1.0709888301789761e-03</internalNodes>
          <leafValues>
            1.2262663245201111e-01 -6.2011218070983887e-01</leafValues></_>
        <_>
          <internalNodes>
            0 -1 278 -2.9263584874570370e-03</internalNodes>
          <leafValues>
            3.1613034009933472e-01 -2.9583799839019775e-01</leafValues></_>
        <_>
          <internalNodes>
            0 -1 30 4.8638121224939823e-03</internalNodes>
          <leafValues>
            1.5837064385414124e-01 -5.4112410545349121e-01</leafValues></_>
        <_>
          <internalNodes>
            0 -1 165 6.7661176435649395e-03</internalNodes>
          <leafValues>
            -1.6310325264930725e-01 5.5878674983978271e-01</leafValues></_>
        <_>
          <internalNodes>
            0 -1 263 -2.4617098271846771e-02</internalNodes>
          <leafValues>
            -7.5366485118865967e-01 1.3070790469646454e-01</leafValues></_>
        <_>
          <internalNodes>
            0 -1 214 3.3498145639896393e-03</internalNodes>
          <leafValues>
            -1.8620155751705170e-01 5.1326566934585571e-01</leafValues></_></weakClassifiers></_>
    <!-- stage 15 -->
    <_>
      <maxWeakCount>17</maxWeakCount>
      <stageThreshold>-2.2847433388233185e-01</stageThreshold>
      <weakClassifiers>
        <_>
          <internalNodes>
            0 -1 59 4.7993205953389406e-04</internalNodes>
          <leafValues>
            8.1991213560104370e-01 3.8022813387215137e-03</leafValues></_>
        <_>
          <internalNodes>
            0 -1 82 1.8605856457725167e-03</internalNodes>
          <leafValues>
            -8.7144091725349426e-02 6.0120481252670288e-01</leafValues></_>
        <_>
          <internalNodes>
            0 -1 3 6.2692314386367798e-01</internalNodes>
          <leafValues>
            -2.0076347887516022e-01 5.9212487936019897e-01</leafValues></_>
        <_>
          <internalNodes>
            0 -1 219 -1.7518848180770874e-03</internalNodes>
          <leafValues>
            2.9960116744041443e-01 -4.5458513498306274e-01</leafValues></_>
        <_>
          <internalNodes>
            0 -1 67 -2.5667436420917511e-02</internalNodes>
          <leafValues>
            2.1885301172733307e-01 -5.3587609529495239e-01</leafValues></_>
        <_>
          <internalNodes>
            0 -1 257 2.3804809898138046e-03</internalNodes>
          <leafValues>
            -6.2256312370300293e-01 1.3228218257427216e-01</leafValues></_>
        <_>
          <internalNodes>
            0 -1 163 3.4459622111171484e-03</internalNodes>
          <leafValues>
            -2.7058804035186768e-01 3.8387116789817810e-01</leafValues></_>
        <_>
          <internalNodes>
            0 -1 49 2.1822960115969181e-03</internalNodes>
          <leafValues>
            1.2314621359109879e-01 -7.2497344017028809e-01</leafValues></_>
        <_>
          <internalNodes>
            0 -1 10 -3.8208633195608854e-03</internalNodes>
          <leafValues>
            -7.3014551401138306e-01 1.0825296491384506e-01</leafValues></_>
        <_>
          <internalNodes>
            0 -1 272 -2.8958311304450035e-03</internalNodes>
          <leafValues>
            1.3604615628719330e-01 -5.9275078773498535e-01</leafValues></_>
        <_>
          <internalNodes>
            0 -1 216 2.4043178200372495e-05</internalNodes>
          <leafValues>
            -4.6041363477706909e-01 1.8511162698268890e-01</leafValues></_>
        <_>
          <internalNodes>
            0 -1 123 -3.4298952668905258e-03</internalNodes>
          <leafValues>
            -6.8678557872772217e-01 1.0647498816251755e-01</leafValues></_>
        <_>
          <internalNodes>
            0 -1 92 -3.2904231920838356e-04</internalNodes>
          <leafValues>
            1.6085551679134369e-01 -5.2201962471008301e-01</leafValues></_>
        <_>
          <internalNodes>
            0 -1 101 2.0719803869724274e-02</internalNodes>
          <leafValues>
            9.9900349974632263e-02 -7.3615372180938721e-01</leafValues></_>
        <_>
          <internalNodes>
            0 -1 245 -6.8426097277551889e-04</internalNodes>
          <leafValues>
            3.4341734647750854e-01 -2.7557957172393799e-01</leafValues></_>
        <_>
          <internalNodes>
            0 -1 259 -5.2028317004442215e-03</internalNodes>
          <leafValues>
            -6.0727775096893311e-01 1.5424673259258270e-01</leafValues></_>
        <_>
          <internalNodes>
            0 -1 132 6.3496958464384079e-03</internalNodes>
          <leafValues>
            -1.7514875531196594e-01 5.6154668331146240e-01</leafValues></_></weakClassifiers></_>
    <!-- stage 16 -->
    <_>
      <maxWeakCount>20</maxWeakCount>
      <stageThreshold>-3.3996114134788513e-01</stageThreshold>
      <weakClassifiers>
        <_>
          <internalNodes>
            0 -1 126 2.5666183792054653e-03</internalNodes>
          <leafValues>
            8.1893306970596313e-01 -3.4482758492231369e-02</leafValues></_>
        <_>
          <internalNodes>
            0 -1 76 4.1782916523516178e-03</internalNodes>
          <leafValues>
            -3.6001604795455933e-01 4.6903312206268311e-01</leafValues></_>
        <_>
          <internalNodes>
            0 -1 40 4.5389947295188904e-01</internalNodes>
          <leafValues>
            -2.3297962546348572e-01 5.4023158550262451e-01</leafValues></_>
        <_>
          <internalNodes>
            0 -1 122 3.0394808854907751e-03</internalNodes>
          <leafValues>
            -5.8550405502319336e-01 2.2051413357257843e-01</leafValues></_>
        <_>
          <internalNodes>
            0 -1 277 -1.1023089755326509e-03</internalNodes>
          <leafValues>
            3.0887171626091003e-01 -4.0792983770370483e-01</leafValues></_>
        <_>
          <internalNodes>
            0 -1 261 -1.5847614122321829e-05</internalNodes>
          <leafValues>
            1.9982217252254486e-01 -4.7380250692367554e-01</leafValues></_>
        <_>
          <internalNodes>
            0 -1 4 -2.6061204262077808e-03</internalNodes>
          <leafValues>
            -5.2257293462753296e-01 1.1656609177589417e-01</leafValues></_>
        <_>
          <internalNodes>
            0 -1 60 4.4047296978533268e-04</internalNodes>
          <leafValues>
            1.2434008717536926e-01 -6.4820921421051025e-01</leafValues></_>
        <_>
          <internalNodes>
            0 -1 179 4.8466729931533337e-03</internalNodes>
          <leafValues>
            -2.2074040770530701e-01 4.0432283282279968e-01</leafValues></_>
        <_>
          <internalNodes>
            0 -1 93 -1.2275200337171555e-02</internalNodes>
          <leafValues>
            -7.2104358673095703e-01 1.1230387538671494e-01</leafValues></_>
        <_>
          <internalNodes>
            0 -1 98 -1.3254938647150993e-02</internalNodes>
          <leafValues>
            -6.0528731346130371e-01 1.3062794506549835e-01</leafValues></_>
        <_>
          <internalNodes>
            0 -1 13 -2.0910879597067833e-02</internalNodes>
          <leafValues>
            -6.7187589406967163e-01 1.1536545306444168e-01</leafValues></_>
        <_>
          <internalNodes>
            0 -1 103 -3.1743156723678112e-03</internalNodes>
          <leafValues>
            2.4108737707138062e-01 -3.3390450477600098e-01</leafValues></_>
        <_>
          <internalNodes>
            0 -1 247 -1.7549579497426748e-03</internalNodes>
          <leafValues>
            -5.7382827997207642e-01 1.4957545697689056e-01</leafValues></_>
        <_>
          <internalNodes>
            0 -1 254 3.1946093076840043e-04</internalNodes>
          <leafValues>
            1.6833378374576569e-01 -4.6748620271682739e-01</leafValues></_>
        <_>
          <internalNodes>
            0 -1 97 -5.8229221031069756e-03</internalNodes>
          <leafValues>
            -6.0512655973434448e-01 1.2124171853065491e-01</leafValues></_>
        <_>
          <internalNodes>
            0 -1 145 4.1415197774767876e-03</internalNodes>
          <leafValues>
            1.2189298868179321e-01 -6.0852509737014771e-01</leafValues></_>
        <_>
          <internalNodes>
            0 -1 164 -1.1307666078209877e-02</internalNodes>
          <leafValues>
            6.5182000398635864e-01 -1.4106923341751099e-01</leafValues></_>
        <_>
          <internalNodes>
            0 -1 189 2.8152598533779383e-03</internalNodes>
          <leafValues>
            -1.8386116623878479e-01 4.8034310340881348e-01</leafValues></_>
        <_>
          <internalNodes>
            0 -1 208 -2.2752233780920506e-03</internalNodes>
          <leafValues>
            -6.6258609294891357e-01 1.4805455505847931e-01</leafValues></_></weakClassifiers></_>
    <!-- stage 17 -->
    <_>
      <maxWeakCount>20</maxWeakCount>
      <stageThreshold>-4.9938565492630005e-01</stageThreshold>
      <weakClassifiers>
        <_>
          <internalNodes>
            0 -1 116 -3.1151009723544121e-02</internalNodes>
          <leafValues>
            -3.3096083998680115e-01 8.0736881494522095e-01</leafValues></_>
        <_>
          <internalNodes>
            0 -1 65 1.7466302961111069e-04</internalNodes>
          <leafValues>
            -2.5889381766319275e-01 4.9166554212570190e-01</leafValues></_>
        <_>
          <internalNodes>
            0 -1 166 3.6831677425652742e-04</internalNodes>
          <leafValues>
            -4.0083968639373779e-01 3.0952289700508118e-01</leafValues></_>
        <_>
          <internalNodes>
            0 -1 137 1.2427531182765961e-02</internalNodes>
          <leafValues>
            -6.1785036325454712e-01 1.8689675629138947e-01</leafValues></_>
        <_>
          <internalNodes>
            0 -1 301 -1.7483510076999664e-02</internalNodes>
          <leafValues>
            3.6274582147598267e-01 -3.2635858654975891e-01</leafValues></_>
        <_>
          <internalNodes>
            0 -1 35 4.3556070886552334e-04</internalNodes>
          <leafValues>
            1.8047858774662018e-01 -5.9468811750411987e-01</leafValues></_>
        <_>
          <internalNodes>
            0 -1 283 4.8991679213941097e-03</internalNodes>
          <leafValues>
            -6.4677762985229492e-01 1.4073514938354492e-01</leafValues></_>
        <_>
          <internalNodes>
            0 -1 0 1.4741612970829010e-01</internalNodes>
          <leafValues>
            -1.8332827091217041e-01 5.0955730676651001e-01</leafValues></_>
        <_>
          <internalNodes>
            0 -1 90 8.2139335572719574e-03</internalNodes>
          <leafValues>
            -2.9302445054054260e-01 3.2837462425231934e-01</leafValues></_>
        <_>
          <internalNodes>
            0 -1 183 5.6035168468952179e-02</internalNodes>
          <leafValues>
            1.1355748772621155e-01 -7.4258971214294434e-01</leafValues></_>
        <_>
          <internalNodes>
            0 -1 233 -7.1996902115643024e-03</internalNodes>
          <leafValues>
            3.8264602422714233e-01 -2.3708900809288025e-01</leafValues></_>
        <_>
          <internalNodes>
            0 -1 136 2.2769577335566282e-03</internalNodes>
          <leafValues>
            1.7052803933620453e-01 -4.9519935250282288e-01</leafValues></_>
        <_>
          <internalNodes>
            0 -1 73 -4.2977277189493179e-03</internalNodes>
          <leafValues>
            -6.1243826150894165e-01 1.1548349261283875e-01</leafValues></_>
        <_>
          <internalNodes>
            0 -1 237 2.6716361753642559e-03</internalNodes>
          <leafValues>
            -5.6680911779403687e-01 1.3135936856269836e-01</leafValues></_>
        <_>
          <internalNodes>
            0 -1 281 -7.6288776472210884e-03</internalNodes>
          <leafValues>
            1.3597536087036133e-01 -5.7289648056030273e-01</leafValues></_>
        <_>
          <internalNodes>
            0 -1 195 -2.5207377038896084e-03</internalNodes>
          <leafValues>
            -7.5425738096237183e-01 8.9267723262310028e-02</leafValues></_>
        <_>
          <internalNodes>
            0 -1 196 3.3651827834546566e-04</internalNodes>
          <leafValues>
            1.6458146274089813e-01 -4.3002855777740479e-01</leafValues></_>
        <_>
          <internalNodes>
            0 -1 260 -2.7447198517620564e-03</internalNodes>
          <leafValues>
            -4.3876817822456360e-01 1.7400854825973511e-01</leafValues></_>
        <_>
          <internalNodes>
            0 -1 115 -3.0042212456464767e-03</internalNodes>
          <leafValues>
            2.7424684166908264e-01 -2.6695600152015686e-01</leafValues></_>
        <_>
          <internalNodes>
            0 -1 28 -3.4703207015991211e-01</internalNodes>
          <leafValues>
            7.4248713254928589e-01 -1.2703649699687958e-01</leafValues></_></weakClassifiers></_>
    <!-- stage 18 -->
    <_>
      <maxWeakCount>20</maxWeakCount>
      <stageThreshold>-3.1722089648246765e-01</stageThreshold>
      <weakClassifiers>
        <_>
          <internalNodes>
            0 -1 114 -1.6424266621470451e-02</internalNodes>
          <leafValues>
            -1.7507418990135193e-01 8.0870604515075684e-01</leafValues></_>
        <_>
          <internalNodes>
            0 -1 139 1.0031592100858688e-03</internalNodes>
          <leafValues>
            -3.3982414007186890e-01 4.5308405160903931e-01</leafValues></_>
        <_>
          <internalNodes>
            0 -1 9 4.5761939138174057e-02</internalNodes>
          <leafValues>
            -1.9256076216697693e-01 4.9852630496025085e-01</leafValues></_>
        <_>
          <internalNodes>
            0 -1 271 -7.0045510074123740e-04</internalNodes>
          <leafValues>
            5.0440895557403564e-01 -1.9695861637592316e-01</leafValues></_>
        <_>
          <internalNodes>
            0 -1 285 -7.8699886798858643e-03</internalNodes>
          <leafValues>
            1.6110183298587799e-01 -5.1876378059387207e-01</leafValues></_>
        <_>
          <internalNodes>
            0 -1 78 1.2497996911406517e-02</internalNodes>
          <leafValues>
            -6.8142020702362061e-01 1.2898330390453339e-01</leafValues></_>
        <_>
          <internalNodes>
            0 -1 160 5.3687090985476971e-03</internalNodes>
          <leafValues>
            -2.1027916669845581e-01 4.8832297325134277e-01</leafValues></_>
        <_>
          <internalNodes>
            0 -1 88 -1.5349621884524822e-02</internalNodes>
          <leafValues>
            -6.7109459638595581e-01 1.2624192237854004e-01</leafValues></_>
        <_>
          <internalNodes>
            0 -1 164 8.8343676179647446e-03</internalNodes>
          <leafValues>
            -1.4483109116554260e-01 6.2772917747497559e-01</leafValues></_>
        <_>
          <internalNodes>
            0 -1 171 4.4343466870486736e-03</internalNodes>
          <leafValues>
            -4.6761685609817505e-01 1.9843338429927826e-01</leafValues></_>
        <_>
          <internalNodes>
            0 -1 180 2.1303719840943813e-03</internalNodes>
          <leafValues>
            -7.0750635862350464e-01 1.0508044064044952e-01</leafValues></_>
        <_>
          <internalNodes>
            0 -1 206 -2.0710718818008900e-03</internalNodes>
          <leafValues>
            -7.1958559751510620e-01 1.1750522255897522e-01</leafValues></_>
        <_>
          <internalNodes>
            0 -1 146 -2.7506984770298004e-03</internalNodes>
          <leafValues>
            3.6492696404457092e-01 -2.7355709671974182e-01</leafValues></_>
        <_>
          <internalNodes>
            0 -1 117 1.3403750199358910e-04</internalNodes>
          <leafValues>
            1.2988735735416412e-01 -6.1812782287597656e-01</leafValues></_>
        <_>
          <internalNodes>
            0 -1 58 1.8384106457233429e-02</internalNodes>
          <leafValues>
            1.0941725969314575e-01 -6.7598670721054077e-01</leafValues></_>
        <_>
          <internalNodes>
            0 -1 46 -2.8001233935356140e-02</internalNodes>
          <leafValues>
            -6.5029019117355347e-01 1.0739856958389282e-01</leafValues></_>
        <_>
          <internalNodes>
            0 -1 133 6.6875000484287739e-03</internalNodes>
          <leafValues>
            -1.6682963073253632e-01 4.5286706089973450e-01</leafValues></_>
        <_>
          <internalNodes>
            0 -1 246 -4.7893542796373367e-03</internalNodes>
          <leafValues>
            -7.1100473403930664e-01 1.2442589551210403e-01</leafValues></_>
        <_>
          <internalNodes>
            0 -1 218 -1.3532564043998718e-03</internalNodes>
          <leafValues>
            -6.4670997858047485e-01 1.0273808240890503e-01</leafValues></_>
        <_>
          <internalNodes>
            0 -1 29 -6.6405490040779114e-02</internalNodes>
          <leafValues>
            -7.5013601779937744e-01 8.1320963799953461e-02</leafValues></_></weakClassifiers></_>
    <!-- stage 19 -->
    <_>
      <maxWeakCount>20</maxWeakCount>
      <stageThreshold>-3.4350746870040894e-01</stageThreshold>
      <weakClassifiers>
        <_>
          <internalNodes>
            0 -1 109 7.6454821974039078e-03</internalNodes>
          <leafValues>
            -8.5995085537433624e-02 8.1262779235839844e-01</leafValues></_>
        <_>
          <internalNodes>
            0 -1 266 -1.8708358984440565e-03</internalNodes>
          <leafValues>
            5.9016221761703491e-01 -1.4869754016399384e-01</leafValues></_>
        <_>
          <internalNodes>
            0 -1 107 -2.3680422455072403e-02</internalNodes>
          <leafValues>
            3.2313454151153564e-01 -3.3350118994712830e-01</leafValues></_>
        <_>
          <internalNodes>
            0 -1 270 1.7235727282240987e-03</internalNodes>
          <leafValues>
            -6.9031435251235962e-01 1.7356356978416443e-01</leafValues></_>
        <_>
          <internalNodes>
            0 -1 269 -5.7115321978926659e-03</internalNodes>
          <leafValues>
            -5.6202542781829834e-01 1.6597107052803040e-01</leafValues></_>
        <_>
          <internalNodes>
            0 -1 62 4.3390588834881783e-03</internalNodes>
          <leafValues>
            -3.0187815427780151e-01 3.0807903409004211e-01</leafValues></_>
        <_>
          <internalNodes>
            0 -1 172 2.3491354659199715e-03</internalNodes>
          <leafValues>
            -3.0616903305053711e-01 2.9357036948204041e-01</leafValues></_>
        <_>
          <internalNodes>
            0 -1 34 -5.8600853662937880e-04</internalNodes>
          <leafValues>
            -7.8292042016983032e-01 7.5609922409057617e-02</leafValues></_>
        <_>
          <internalNodes>
            0 -1 151 4.6606380492448807e-03</internalNodes>
          <leafValues>
            1.3643629848957062e-01 -5.5907547473907471e-01</leafValues></_>
        <_>
          <internalNodes>
            0 -1 27 -2.1604818757623434e-03</internalNodes>
          <leafValues>
            1.6583546996116638e-01 -5.0659883022308350e-01</leafValues></_>
        <_>
          <internalNodes>
            0 -1 210 2.7836328372359276e-03</internalNodes>
          <leafValues>
            -2.5229471921920776e-01 3.6088120937347412e-01</leafValues></_>
        <_>
          <internalNodes>
            0 -1 186 -7.1242459118366241e-02</internalNodes>
          <leafValues>
            -7.7676290273666382e-01 1.0746929049491882e-01</leafValues></_>
        <_>
          <internalNodes>
            0 -1 158 7.7413381077349186e-03</internalNodes>
          <leafValues>
            -1.2253531813621521e-01 7.9271179437637329e-01</leafValues></_>
        <_>
          <internalNodes>
            0 -1 54 2.0476553589105606e-02</internalNodes>
          <leafValues>
            -7.1611875295639038e-01 1.4429903030395508e-01</leafValues></_>
        <_>
          <internalNodes>
            0 -1 309 5.9675211086869240e-03</internalNodes>
          <leafValues>
            1.2062145769596100e-01 -6.4681369066238403e-01</leafValues></_>
        <_>
          <internalNodes>
            0 -1 68 6.3445642590522766e-02</internalNodes>
          <leafValues>
            9.4961315393447876e-02 -7.1585220098495483e-01</leafValues></_>
        <_>
          <internalNodes>
            0 -1 164 1.0241101495921612e-02</internalNodes>
          <leafValues>
            -1.2818075716495514e-01 6.4594155550003052e-01</leafValues></_>
        <_>
          <internalNodes>
            0 -1 192 4.5616934075951576e-03</internalNodes>
          <leafValues>
            -1.4825953543186188e-01 5.0895684957504272e-01</leafValues></_>
        <_>
          <internalNodes>
            0 -1 120 3.7922584451735020e-03</internalNodes>
          <leafValues>
            -1.5920560061931610e-01 4.6252384781837463e-01</leafValues></_>
        <_>
          <internalNodes>
            0 -1 15 6.6290600225329399e-03</internalNodes>
          <leafValues>
            1.2311858683824539e-01 -6.7950999736785889e-01</leafValues></_></weakClassifiers></_>
    <!-- stage 20 -->
    <_>
      <maxWeakCount>24</maxWeakCount>
      <stageThreshold>-3.9994251728057861e-01</stageThreshold>
      <weakClassifiers>
        <_>
          <internalNodes>
            0 -1 200 -9.8785385489463806e-03</internalNodes>
          <leafValues>
            8.2148557901382446e-01 5.3726170212030411e-02</leafValues></_>
        <_>
          <internalNodes>
            0 -1 173 1.0791295208036900e-03</internalNodes>
          <leafValues>
            -1.5492244064807892e-01 5.2410727739334106e-01</leafValues></_>
        <_>
          <internalNodes>
            0 -1 226 -3.7004393525421619e-03</internalNodes>
          <leafValues>
            4.4608533382415771e-01 -2.1751217544078827e-01</leafValues></_>
        <_>
          <internalNodes>
            0 -1 84 1.6548144631087780e-03</internalNodes>
          <leafValues>
            -3.6622551083564758e-01 2.7160516381263733e-01</leafValues></_>
        <_>
          <internalNodes>
            0 -1 291 2.5996416807174683e-03</internalNodes>
          <leafValues>
            -3.3015522360801697e-01 2.8880175948143005e-01</leafValues></_>
        <_>
          <internalNodes>
            0 -1 199 -1.5826808521524072e-04</internalNodes>
          <leafValues>
            1.5167091786861420e-01 -4.5870491862297058e-01</leafValues></_>
        <_>
          <internalNodes>
            0 -1 288 -1.9466765224933624e-02</internalNodes>
          <leafValues>
            -6.0268896818161011e-01 1.1415930092334747e-01</leafValues></_>
        <_>
          <internalNodes>
            0 -1 99 3.3920295536518097e-03</internalNodes>
          <leafValues>
            1.2111992388963699e-01 -5.9546720981597900e-01</leafValues></_>
        <_>
          <internalNodes>
            0 -1 128 1.5410138294100761e-02</internalNodes>
          <leafValues>
            8.9055992662906647e-02 -6.8528389930725098e-01</leafValues></_>
        <_>
          <internalNodes>
            0 -1 174 -2.7772461995482445e-02</internalNodes>
          <leafValues>
            -6.8446475267410278e-01 1.1049345880746841e-01</leafValues></_>
        <_>
          <internalNodes>
            0 -1 150 -9.1303314547985792e-04</internalNodes>
          <leafValues>
            1.4832554757595062e-01 -4.7149500250816345e-01</leafValues></_>
        <_>
          <internalNodes>
            0 -1 215 7.0397928357124329e-04</internalNodes>
          <leafValues>
            -3.1291356682777405e-01 2.2376246750354767e-01</leafValues></_>
        <_>
          <internalNodes>
            0 -1 306 5.0970174372196198e-02</internalNodes>
          <leafValues>
            -9.2067807912826538e-02 8.6295640468597412e-01</leafValues></_>
        <_>
          <internalNodes>
            0 -1 302 -7.5057731010019779e-03</internalNodes>
          <leafValues>
            -8.0925095081329346e-01 1.1819602549076080e-01</leafValues></_>
        <_>
          <internalNodes>
            0 -1 297 1.3316683471202850e-02</internalNodes>
          <leafValues>
            1.3579456508159637e-01 -5.2565938234329224e-01</leafValues></_>
        <_>
          <internalNodes>
            0 -1 45 6.2383175827562809e-04</internalNodes>
          <leafValues>
            -4.3661203980445862e-01 1.4457206428050995e-01</leafValues></_>
        <_>
          <internalNodes>
            0 -1 26 2.3476142436265945e-02</internalNodes>
          <leafValues>
            7.4705392122268677e-02 -7.9455423355102539e-01</leafValues></_>
        <_>
          <internalNodes>
            0 -1 212 -1.8354784697294235e-03</internalNodes>
          <leafValues>
            -7.5906652212142944e-01 6.9007799029350281e-02</leafValues></_>
        <_>
          <internalNodes>
            0 -1 268 1.4785956591367722e-02</internalNodes>
          <leafValues>
            9.0572863817214966e-02 -6.4217931032180786e-01</leafValues></_>
        <_>
          <internalNodes>
            0 -1 187 1.6589500010013580e-03</internalNodes>
          <leafValues>
            -2.3322062194347382e-01 2.6594519615173340e-01</leafValues></_>
        <_>
          <internalNodes>
            0 -1 190 1.6866030637174845e-03</internalNodes>
          <leafValues>
            -1.8307638168334961e-01 4.1841515898704529e-01</leafValues></_>
        <_>
          <internalNodes>
            0 -1 124 3.9311023429036140e-03</internalNodes>
          <leafValues>
            -6.3577276468276978e-01 1.1583712697029114e-01</leafValues></_>
        <_>
          <internalNodes>
            0 -1 121 4.4180054828757420e-05</internalNodes>
          <leafValues>
            -3.4897714853286743e-01 1.8521361052989960e-01</leafValues></_>
        <_>
          <internalNodes>
            0 -1 211 -2.4733531754463911e-03</internalNodes>
          <leafValues>
            -7.0940977334976196e-01 9.3010187149047852e-02</leafValues></_></weakClassifiers></_>
    <!-- stage 21 -->
    <_>
      <maxWeakCount>21</maxWeakCount>
      <stageThreshold>-4.9230819940567017e-01</stageThreshold>
      <weakClassifiers>
        <_>
          <internalNodes>
            0 -1 256 1.6205969732254744e-03</internalNodes>
          <leafValues>
            -2.8985506296157837e-01 8.0535167455673218e-01</leafValues></_>
        <_>
          <internalNodes>
            0 -1 236 1.1645272374153137e-02</internalNodes>
          <leafValues>
            5.4570734500885010e-01 -1.8618424236774445e-01</leafValues></_>
        <_>
          <internalNodes>
            0 -1 63 1.4088166877627373e-02</internalNodes>
          <leafValues>
            -2.5541439652442932e-01 4.1961082816123962e-01</leafValues></_>
        <_>
          <internalNodes>
            0 -1 70 3.7079821340739727e-03</internalNodes>
          <leafValues>
            -5.2141678333282471e-01 2.0371991395950317e-01</leafValues></_>
        <_>
          <internalNodes>
            0 -1 230 6.2728561460971832e-03</internalNodes>
          <leafValues>
            1.1409775167703629e-01 -7.9444468021392822e-01</leafValues></_>
        <_>
          <internalNodes>
            0 -1 202 -4.5550707727670670e-03</internalNodes>
          <leafValues>
            1.5201392769813538e-01 -5.7681387662887573e-01</leafValues></_>
        <_>
          <internalNodes>
            0 -1 242 -1.3023286126554012e-02</internalNodes>
          <leafValues>
            4.3184950947761536e-01 -2.2602689266204834e-01</leafValues></_>
        <_>
          <internalNodes>
            0 -1 157 -2.7741445228457451e-03</internalNodes>
          <leafValues>
            3.3034229278564453e-01 -2.7192100882530212e-01</leafValues></_>
        <_>
          <internalNodes>
            0 -1 56 7.1495783049613237e-04</internalNodes>
          <leafValues>
            1.5348067879676819e-01 -5.5886971950531006e-01</leafValues></_>
        <_>
          <internalNodes>
            0 -1 83 -1.7749585676938295e-03</internalNodes>
          <leafValues>
            -5.7660031318664551e-01 1.2170927226543427e-01</leafValues></_>
        <_>
          <internalNodes>
            0 -1 273 7.5862783705815673e-04</internalNodes>
          <leafValues>
            1.1252444237470627e-01 -6.3218730688095093e-01</leafValues></_>
        <_>
          <internalNodes>
            0 -1 64 -1.8204562366008759e-02</internalNodes>
          <leafValues>
            -6.3714635372161865e-01 1.1032281070947647e-01</leafValues></_>
        <_>
          <internalNodes>
            0 -1 113 1.4319198671728373e-03</internalNodes>
          <leafValues>
            -5.4780948162078857e-01 1.3722686469554901e-01</leafValues></_>
        <_>
          <internalNodes>
            0 -1 307 -6.4487755298614502e-04</internalNodes>
          <leafValues>
            -6.9659596681594849e-01 1.0700878500938416e-01</leafValues></_>
        <_>
          <internalNodes>
            0 -1 100 -4.0263919800054282e-05</internalNodes>
          <leafValues>
            1.9284150004386902e-01 -4.2470511794090271e-01</leafValues></_>
        <_>
          <internalNodes>
            0 -1 295 6.0313014546409249e-04</internalNodes>
          <leafValues>
            -2.7390488982200623e-01 3.0283403396606445e-01</leafValues></_>
        <_>
          <internalNodes>
            0 -1 185 2.5619617663323879e-03</internalNodes>
          <leafValues>
            -1.6600714623928070e-01 5.2139502763748169e-01</leafValues></_>
        <_>
          <internalNodes>
            0 -1 12 -1.1644853278994560e-02</internalNodes>
          <leafValues>
            -6.5073603391647339e-01 1.2895119190216064e-01</leafValues></_>
        <_>
          <internalNodes>
            0 -1 217 2.9078912921249866e-03</internalNodes>
          <leafValues>
            1.1934065073728561e-01 -5.8289206027984619e-01</leafValues></_>
        <_>
          <internalNodes>
            0 -1 143 -1.0682689957320690e-02</internalNodes>
          <leafValues>
            -6.3644045591354370e-01 9.8365731537342072e-02</leafValues></_>
        <_>
          <internalNodes>
            0 -1 229 -1.2919837608933449e-03</internalNodes>
          <leafValues>
            2.4381563067436218e-01 -3.0227980017662048e-01</leafValues></_></weakClassifiers></_>
    <!-- stage 22 -->
    <_>
      <maxWeakCount>20</maxWeakCount>
      <stageThreshold>-4.4454732537269592e-01</stageThreshold>
      <weakClassifiers>
        <_>
          <internalNodes>
            0 -1 153 -2.5848682969808578e-02</internalNodes>
          <leafValues>
            -4.3859648704528809e-01 8.0315518379211426e-01</leafValues></_>
        <_>
          <internalNodes>
            0 -1 1 1.0484828799962997e-01</internalNodes>
          <leafValues>
            -6.3836690969765186e-03 6.9991207122802734e-01</leafValues></_>
        <_>
          <internalNodes>
            0 -1 275 4.2117186821997166e-03</internalNodes>
          <leafValues>
            -3.7748867273330688e-01 3.1605890393257141e-01</leafValues></_>
        <_>
          <internalNodes>
            0 -1 176 3.3456482924520969e-03</internalNodes>
          <leafValues>
            -3.7098044157028198e-01 3.0028650164604187e-01</leafValues></_>
        <_>
          <internalNodes>
            0 -1 155 9.3348772497847676e-04</internalNodes>
          <leafValues>
            1.6894376277923584e-01 -6.5310245752334595e-01</leafValues></_>
        <_>
          <internalNodes>
            0 -1 294 -2.0947577431797981e-03</internalNodes>
          <leafValues>
            5.0020492076873779e-01 -2.1844156086444855e-01</leafValues></_>
        <_>
          <internalNodes>
            0 -1 241 2.7536037378013134e-03</internalNodes>
          <leafValues>
            -5.3913259506225586e-01 1.6155499219894409e-01</leafValues></_>
        <_>
          <internalNodes>
            0 -1 8 -5.7730167172849178e-03</internalNodes>
          <leafValues>
            -7.2841209173202515e-01 1.1636719107627869e-01</leafValues></_>
        <_>
          <internalNodes>
            0 -1 32 1.7446223646402359e-03</internalNodes>
          <leafValues>
            -4.2776131629943848e-01 1.9477187097072601e-01</leafValues></_>
        <_>
          <internalNodes>
            0 -1 80 -1.9948377739638090e-03</internalNodes>
          <leafValues>
            -7.1280425786972046e-01 1.1404406279325485e-01</leafValues></_>
        <_>
          <internalNodes>
            0 -1 251 2.0991687197238207e-03</internalNodes>
          <leafValues>
            1.1437351256608963e-01 -6.9617408514022827e-01</leafValues></_>
        <_>
          <internalNodes>
            0 -1 249 -2.5968621484935284e-03</internalNodes>
          <leafValues>
            -5.9866982698440552e-01 1.3960915803909302e-01</leafValues></_>
        <_>
          <internalNodes>
            0 -1 298 -5.0959530199179426e-05</internalNodes>
          <leafValues>
            2.1077771484851837e-01 -4.1692882776260376e-01</leafValues></_>
        <_>
          <internalNodes>
            0 -1 286 4.6710021793842316e-02</internalNodes>
          <leafValues>
            -9.5748864114284515e-02 9.6857953071594238e-01</leafValues></_>
        <_>
          <internalNodes>
            0 -1 304 -7.3656160384416580e-04</internalNodes>
          <leafValues>
            -4.8324802517890930e-01 2.0217040181159973e-01</leafValues></_>
        <_>
          <internalNodes>
            0 -1 264 -3.9397464133799076e-03</internalNodes>
          <leafValues>
            6.0732024908065796e-01 -1.4878398180007935e-01</leafValues></_>
        <_>
          <internalNodes>
            0 -1 22 2.2404233459383249e-03</internalNodes>
          <leafValues>
            1.2305700778961182e-01 -7.7631300687789917e-01</leafValues></_>
        <_>
          <internalNodes>
            0 -1 305 2.2811507806181908e-03</internalNodes>
          <leafValues>
            1.1946392804384232e-01 -6.3632965087890625e-01</leafValues></_>
        <_>
          <internalNodes>
            0 -1 231 -4.8544909805059433e-03</internalNodes>
          <leafValues>
            5.3900009393692017e-01 -1.7052522301673889e-01</leafValues></_>
        <_>
          <internalNodes>
            0 -1 213 3.0339851509779692e-03</internalNodes>
          <leafValues>
            -1.4757157862186432e-01 5.7914096117019653e-01</leafValues></_></weakClassifiers></_></stages>
  <features>
    <_>
      <rects>
        <_>
          0 0 8 22 -1.</_>
        <_>
          4 0 4 22 2.</_></rects>
      <tilted>0</tilted></_>
    <_>
      <rects>
        <_>
          0 0 12 7 -1.</_>
        <_>
          6 0 6 7 2.</_></rects>
      <tilted>0</tilted></_>
    <_>
      <rects>
        <_>
          0 0 24 5 -1.</_>
        <_>
          8 0 8 5 3.</_></rects>
      <tilted>0</tilted></_>
    <_>
      <rects>
        <_>
          0 0 24 24 -1.</_>
        <_>
          8 0 8 24 3.</_></rects>
      <tilted>0</tilted></_>
    <_>
      <rects>
        <_>
          0 0 12 3 -1.</_>
        <_>
          0 1 12 1 3.</_></rects>
      <tilted>0</tilted></_>
    <_>
      <rects>
        <_>
          0 1 10 5 -1.</_>
        <_>
          5 1 5 5 2.</_></rects>
      <tilted>0</tilted></_>
    <_>
      <rects>
        <_>
          0 1 10 22 -1.</_>
        <_>
          5 1 5 22 2.</_></rects>
      <tilted>0</tilted></_>
    <_>
      <rects>
        <_>
          0 1 24 5 -1.</_>
        <_>
          8 1 8 5 3.</_></rects>
      <tilted>0</tilted></_>
    <_>
      <rects>
        <_>
          0 1 20 2 -1.</_>
        <_>
          0 1 10 1 2.</_>
        <_>
          10 2 10 1 2.</_></rects>
      <tilted>0</tilted></_>
    <_>
      <rects>
        <_>
          0 3 6 11 -1.</_>
        <_>
          3 3 3 11 2.</_></rects>
      <tilted>0</tilted></_>
    <_>
      <rects>
        <_>
          0 3 13 2 -1.</_>
        <_>
          0 4 13 1 2.</_></rects>
      <tilted>0</tilted></_>
    <_>
      <rects>
        <_>
          0 5 4 4 -1.</_>
        <_>
          0 7 4 2 2.</_></rects>
      <tilted>0</tilted></_>
    <_>
      <rects>
        <_>
          0 5 4 6 -1.</_>
        <_>
          0 7 4 2 3.</_></rects>
      <tilted>0</tilted></_>
    <_>
      <rects>
        <_>
          0 5 4 9 -1.</_>
        <_>
          0 8 4 3 3.</_></rects>
      <tilted>0</tilted></_>
    <_>
      <rects>
        <_>
          0 9 15 2 -1.</_>
        <_>
          0 10 15 1 2.</_></rects>
      <tilted>0</tilted></_>
    <_>
      <rects>
        <_>
          0 15 24 2 -1.</_>
        <_>
          0 15 12 1 2.</_>
        <_>
          12 16 12 1 2.</_></rects>
      <tilted>0</tilted></_>
    <_>
      <rects>
        <_>
          0 22 24 2 -1.</_>
        <_>
          8 22 8 2 3.</_></rects>
      <tilted>0</tilted></_>
    <_>
      <rects>
        <_>
          1 0 8 22 -1.</_>
        <_>
          5 0 4 22 2.</_></rects>
      <tilted>0</tilted></_>
    <_>
      <rects>
        <_>
          1 0 8 24 -1.</_>
        <_>
          5 0 4 24 2.</_></rects>
      <tilted>0</tilted></_>
    <_>
      <rects>
        <_>
          1 1 23 9 -1.</_>
        <_>
          1 4 23 3 3.</_></rects>
      <tilted>0</tilted></_>
    <_>
      <rects>
        <_>
          1 2 6 17 -1.</_>
        <_>
          4 2 3 17 2.</_></rects>
      <tilted>0</tilted></_>
    <_>
      <rects>
        <_>
          1 4 10 6 -1.</_>
        <_>
          1 4 5 3 2.</_>
        <_>
          6 7 5 3 2.</_></rects>
      <tilted>0</tilted></_>
    <_>
      <rects>
        <_>
          1 8 2 3 -1.</_>
        <_>
          1 9 2 1 3.</_></rects>
      <tilted>0</tilted></_>
    <_>
      <rects>
        <_>
          1 8 5 4 -1.</_>
        <_>
          1 10 5 2 2.</_></rects>
      <tilted>0</tilted></_>
    <_>
      <rects>
        <_>
          1 9 10 12 -1.</_>
        <_>
          1 13 10 4 3.</_></rects>
      <tilted>0</tilted></_>
    <_>
      <rects>
        <_>
          1 9 13 6 -1.</_>
        <_>
          1 12 13 3 2.</_></rects>
      <tilted>0</tilted></_>
    <_>
      <rects>
        <_>
          1 17 22 4 -1.</_>
        <_>
          1 17 11 2 2.</_>
        <_>
          12 19 11 2 2.</_></rects>
      <tilted>0</tilted></_>
    <_>
      <rects>
        <_>
          2 3 10 6 -1.</_>
        <_>
          2 3 5 3 2.</_>
        <_>
          7 6 5 3 2.</_></rects>
      <tilted>0</tilted></_>
    <_>
      <rects>
        <_>
          2 3 20 21 -1.</_>
        <_>
          12 3 10 21 2.</_></rects>
      <tilted>0</tilted></_>
    <_>
      <rects>
        <_>
          2 3 13 16 -1.</_>
        <_>
          2 11 13 8 2.</_></rects>
      <tilted>0</tilted></_>
    <_>
      <rects>
        <_>
          2 4 12 6 -1.</_>
        <_>
          2 4 6 3 2.</_>
        <_>
          8 7 6 3 2.</_></rects>
      <tilted>0</tilted></_>
    <_>
      <rects>
        <_>
          2 8 6 6 -1.</_>
        <_>
          2 8 3 3 2.</_>
        <_>
          5 11 3 3 2.</_></rects>
      <tilted>0</tilted></_>
    <_>
      <rects>
        <_>
          2 9 4 4 -1.</_>
        <_>
          2 9 2 2 2.</_>
        <_>
          4 11 2 2 2.</_></rects>
      <tilted>0</tilted></_>
    <_>
      <rects>
        <_>
          2 9 18 2 -1.</_>
        <_>
          2 10 18 1 2.</_></rects>
      <tilted>0</tilted></_>
    <_>
      <rects>
        <_>
          2 10 5 2 -1.</_>
        <_>
          2 11 5 1 2.</_></rects>
      <tilted>0</tilted></_>
    <_>
      <rects>
        <_>
          2 13 8 2 -1.</_>
        <_>
          2 14 8 1 2.</_></rects>
      <tilted>0</tilted></_>
    <_>
      <rects>
        <_>
          2 13 18 4 -1.</_>
        <_>
          2 13 9 2 2.</_>
        <_>
          11 15 9 2 2.</_></rects>
      <tilted>0</tilted></_>
    <_>
      <rects>
        <_>
          2 15 3 3 -1.</_>
        <_>
          2 16 3 1 3.</_></rects>
      <tilted>0</tilted></_>
    <_>
      <rects>
        <_>
          2 15 4 3 -1.</_>
        <_>
          2 16 4 1 3.</_></rects>
      <tilted>0</tilted></_>
    <_>
      <rects>
        <_>
          2 22 21 2 -1.</_>
        <_>
          9 22 7 2 3.</_></rects>
      <tilted>0</tilted></_>
    <_>
      <rects>
        <_>
          3 0 21 24 -1.</_>
        <_>
          10 0 7 24 3.</_></rects>
      <tilted>0</tilted></_>
    <_>
      <rects>
        <_>
          3 2 8 10 -1.</_>
        <_>
          3 2 4 5 2.</_>
        <_>
          7 7 4 5 2.</_></rects>
      <tilted>0</tilted></_>
    <_>
      <rects>
        <_>
          3 6 3 12 -1.</_>
        <_>
          3 10 3 4 3.</_></rects>
      <tilted>0</tilted></_>
    <_>
      <rects>
        <_>
          3 7 4 10 -1.</_>
        <_>
          3 7 2 5 2.</_>
        <_>
          5 12 2 5 2.</_></rects>
      <tilted>0</tilted></_>
    <_>
      <rects>
        <_>
          3 7 17 12 -1.</_>
        <_>
          3 11 17 4 3.</_></rects>
      <tilted>0</tilted></_>
    <_>
      <rects>
        <_>
          3 9 4 8 -1.</_>
        <_>
          3 9 2 4 2.</_>
        <_>
          5 13 2 4 2.</_></rects>
      <tilted>0</tilted></_>
    <_>
      <rects>
        <_>
          3 11 20 8 -1.</_>
        <_>
          3 11 10 4 2.</_>
        <_>
          13 15 10 4 2.</_></rects>
      <tilted>0</tilted></_>
    <_>
      <rects>
        <_>
          3 13 2 3 -1.</_>
        <_>
          3 14 2 1 3.</_></rects>
      <tilted>0</tilted></_>
    <_>
      <rects>
        <_>
          3 14 2 3 -1.</_>
        <_>
          3 15 2 1 3.</_></rects>
      <tilted>0</tilted></_>
    <_>
      <rects>
        <_>
          3 16 4 3 -1.</_>
        <_>
          3 17 4 1 3.</_></rects>
      <tilted>0</tilted></_>
    <_>
      <rects>
        <_>
          3 23 18 1 -1.</_>
        <_>
          9 23 6 1 3.</_></rects>
      <tilted>0</tilted></_>
    <_>
      <rects>
        <_>
          4 4 15 9 -1.</_>
        <_>
          4 7 15 3 3.</_></rects>
      <tilted>0</tilted></_>
    <_>
      <rects>
        <_>
          4 9 5 2 -1.</_>
        <_>
          4 10 5 1 2.</_></rects>
      <tilted>0</tilted></_>
    <_>
      <rects>
        <_>
          4 9 17 6 -1.</_>
        <_>
          4 11 17 2 3.</_></rects>
      <tilted>0</tilted></_>
    <_>
      <rects>
        <_>
          4 9 17 12 -1.</_>
        <_>
          4 13 17 4 3.</_></rects>
      <tilted>0</tilted></_>
    <_>
      <rects>
        <_>
          4 10 8 10 -1.</_>
        <_>
          4 15 8 5 2.</_></rects>
      <tilted>0</tilted></_>
    <_>
      <rects>
        <_>
          4 12 1 3 -1.</_>
        <_>
          4 13 1 1 3.</_></rects>
      <tilted>0</tilted></_>
    <_>
      <rects>
        <_>
          4 13 2 5 -1.</_>
        <_>
          5 13 1 5 2.</_></rects>
      <tilted>0</tilted></_>
    <_>
      <rects>
        <_>
          4 13 16 6 -1.</_>
        <_>
          4 13 8 3 2.</_>
        <_>
          12 16 8 3 2.</_></rects>
      <tilted>0</tilted></_>
    <_>
      <rects>
        <_>
          4 14 4 2 -1.</_>
        <_>
          4 15 4 1 2.</_></rects>
      <tilted>0</tilted></_>
    <_>
      <rects>
        <_>
          4 15 3 2 -1.</_>
        <_>
          4 16 3 1 2.</_></rects>
      <tilted>0</tilted></_>
    <_>
      <rects>
        <_>
          4 15 3 3 -1.</_>
        <_>
          4 16 3 1 3.</_></rects>
      <tilted>0</tilted></_>
    <_>
      <rects>
        <_>
          4 23 12 1 -1.</_>
        <_>
          8 23 4 1 3.</_></rects>
      <tilted>0</tilted></_>
    <_>
      <rects>
        <_>
          4 23 15 1 -1.</_>
        <_>
          9 23 5 1 3.</_></rects>
      <tilted>0</tilted></_>
    <_>
      <rects>
        <_>
          5 0 3 12 -1.</_>
        <_>
          5 4 3 4 3.</_></rects>
      <tilted>0</tilted></_>
    <_>
      <rects>
        <_>
          5 0 7 2 -1.</_>
        <_>
          5 1 7 1 2.</_></rects>
      <tilted>0</tilted></_>
    <_>
      <rects>
        <_>
          5 2 5 4 -1.</_>
        <_>
          5 4 5 2 2.</_></rects>
      <tilted>0</tilted></_>
    <_>
      <rects>
        <_>
          5 4 7 12 -1.</_>
        <_>
          5 8 7 4 3.</_></rects>
      <tilted>0</tilted></_>
    <_>
      <rects>
        <_>
          5 6 16 10 -1.</_>
        <_>
          5 6 8 5 2.</_>
        <_>
          13 11 8 5 2.</_></rects>
      <tilted>0</tilted></_>
    <_>
      <rects>
        <_>
          5 6 13 6 -1.</_>
        <_>
          5 8 13 2 3.</_></rects>
      <tilted>0</tilted></_>
    <_>
      <rects>
        <_>
          5 8 1 6 -1.</_>
        <_>
          5 11 1 3 2.</_></rects>
      <tilted>0</tilted></_>
    <_>
      <rects>
        <_>
          5 8 2 6 -1.</_>
        <_>
          5 11 2 3 2.</_></rects>
      <tilted>0</tilted></_>
    <_>
      <rects>
        <_>
          5 8 4 12 -1.</_>
        <_>
          5 12 4 4 3.</_></rects>
      <tilted>0</tilted></_>
    <_>
      <rects>
        <_>
          5 8 8 6 -1.</_>
        <_>
          9 8 4 6 2.</_></rects>
      <tilted>0</tilted></_>
    <_>
      <rects>
        <_>
          5 8 7 8 -1.</_>
        <_>
          5 12 7 4 2.</_></rects>
      <tilted>0</tilted></_>
    <_>
      <rects>
        <_>
          5 8 14 8 -1.</_>
        <_>
          5 12 14 4 2.</_></rects>
      <tilted>0</tilted></_>
    <_>
      <rects>
        <_>
          5 9 2 4 -1.</_>
        <_>
          5 11 2 2 2.</_></rects>
      <tilted>0</tilted></_>
    <_>
      <rects>
        <_>
          5 9 7 6 -1.</_>
        <_>
          5 12 7 3 2.</_></rects>
      <tilted>0</tilted></_>
    <_>
      <rects>
        <_>
          5 9 10 6 -1.</_>
        <_>
          5 12 10 3 2.</_></rects>
      <tilted>0</tilted></_>
    <_>
      <rects>
        <_>
          5 9 15 4 -1.</_>
        <_>
          5 11 15 2 2.</_></rects>
      <tilted>0</tilted></_>
    <_>
      <rects>
        <_>
          5 10 2 6 -1.</_>
        <_>
          5 10 1 3 2.</_>
        <_>
          6 13 1 3 2.</_></rects>
      <tilted>0</tilted></_>
    <_>
      <rects>
        <_>
          5 10 6 6 -1.</_>
        <_>
          8 10 3 6 2.</_></rects>
      <tilted>0</tilted></_>
    <_>
      <rects>
        <_>
          5 18 4 4 -1.</_>
        <_>
          5 18 2 2 2.</_>
        <_>
          7 20 2 2 2.</_></rects>
      <tilted>0</tilted></_>
    <_>
      <rects>
        <_>
          5 20 4 3 -1.</_>
        <_>
          5 21 4 1 3.</_></rects>
      <tilted>0</tilted></_>
    <_>
      <rects>
        <_>
          5 21 4 3 -1.</_>
        <_>
          7 21 2 3 2.</_></rects>
      <tilted>0</tilted></_>
    <_>
      <rects>
        <_>
          6 0 11 2 -1.</_>
        <_>
          6 1 11 1 2.</_></rects>
      <tilted>0</tilted></_>
    <_>
      <rects>
        <_>
          6 0 13 9 -1.</_>
        <_>
          6 3 13 3 3.</_></rects>
      <tilted>0</tilted></_>
    <_>
      <rects>
        <_>
          6 3 12 9 -1.</_>
        <_>
          10 3 4 9 3.</_></rects>
      <tilted>0</tilted></_>
    <_>
      <rects>
        <_>
          6 4 6 5 -1.</_>
        <_>
          8 4 2 5 3.</_></rects>
      <tilted>0</tilted></_>
    <_>
      <rects>
        <_>
          6 4 11 3 -1.</_>
        <_>
          6 5 11 1 3.</_></rects>
      <tilted>0</tilted></_>
    <_>
      <rects>
        <_>
          6 4 12 3 -1.</_>
        <_>
          6 5 12 1 3.</_></rects>
      <tilted>0</tilted></_>
    <_>
      <rects>
        <_>
          6 5 12 6 -1.</_>
        <_>
          10 5 4 6 3.</_></rects>
      <tilted>0</tilted></_>
    <_>
      <rects>
        <_>
          6 6 6 3 -1.</_>
        <_>
          8 6 2 3 3.</_></rects>
      <tilted>0</tilted></_>
    <_>
      <rects>
        <_>
          6 6 8 12 -1.</_>
        <_>
          6 12 8 6 2.</_></rects>
      <tilted>0</tilted></_>
    <_>
      <rects>
        <_>
          6 7 2 10 -1.</_>
        <_>
          6 12 2 5 2.</_></rects>
      <tilted>0</tilted></_>
    <_>
      <rects>
        <_>
          6 7 3 12 -1.</_>
        <_>
          6 11 3 4 3.</_></rects>
      <tilted>0</tilted></_>
    <_>
      <rects>
        <_>
          6 8 10 2 -1.</_>
        <_>
          11 8 5 2 2.</_></rects>
      <tilted>0</tilted></_>
    <_>
      <rects>
        <_>
          6 9 15 3 -1.</_>
        <_>
          11 9 5 3 3.</_></rects>
      <tilted>0</tilted></_>
    <_>
      <rects>
        <_>
          6 10 12 6 -1.</_>
        <_>
          6 10 6 3 2.</_>
        <_>
          12 13 6 3 2.</_></rects>
      <tilted>0</tilted></_>
    <_>
      <rects>
        <_>
          6 11 4 3 -1.</_>
        <_>
          8 11 2 3 2.</_></rects>
      <tilted>0</tilted></_>
    <_>
      <rects>
        <_>
          6 12 4 8 -1.</_>
        <_>
          8 12 2 8 2.</_></rects>
      <tilted>0</tilted></_>
    <_>
      <rects>
        <_>
          6 12 9 12 -1.</_>
        <_>
          6 18 9 6 2.</_></rects>
      <tilted>0</tilted></_>
    <_>
      <rects>
        <_>
          6 13 4 2 -1.</_>
        <_>
          8 13 2 2 2.</_></rects>
      <tilted>0</tilted></_>
    <_>
      <rects>
        <_>
          6 14 8 3 -1.</_>
        <_>
          10 14 4 3 2.</_></rects>
      <tilted>0</tilted></_>
    <_>
      <rects>
        <_>
          6 18 4 6 -1.</_>
        <_>
          6 18 2 3 2.</_>
        <_>
          8 21 2 3 2.</_></rects>
      <tilted>0</tilted></_>
    <_>
      <rects>
        <_>
          6 20 6 4 -1.</_>
        <_>
          6 20 3 2 2.</_>
        <_>
          9 22 3 2 2.</_></rects>
      <tilted>0</tilted></_>
    <_>
      <rects>
        <_>
          7 1 4 9 -1.</_>
        <_>
          7 4 4 3 3.</_></rects>
      <tilted>0</tilted></_>
    <_>
      <rects>
        <_>
          7 3 12 10 -1.</_>
        <_>
          7 8 12 5 2.</_></rects>
      <tilted>0</tilted></_>
    <_>
      <rects>
        <_>
          7 5 6 6 -1.</_>
        <_>
          10 5 3 6 2.</_></rects>
      <tilted>0</tilted></_>
    <_>
      <rects>
        <_>
          7 6 6 4 -1.</_>
        <_>
          10 6 3 4 2.</_></rects>
      <tilted>0</tilted></_>
    <_>
      <rects>
        <_>
          7 6 6 5 -1.</_>
        <_>
          10 6 3 5 2.</_></rects>
      <tilted>0</tilted></_>
    <_>
      <rects>
        <_>
          7 7 2 12 -1.</_>
        <_>
          7 11 2 4 3.</_></rects>
      <tilted>0</tilted></_>
    <_>
      <rects>
        <_>
          7 7 8 3 -1.</_>
        <_>
          11 7 4 3 2.</_></rects>
      <tilted>0</tilted></_>
    <_>
      <rects>
        <_>
          7 9 5 2 -1.</_>
        <_>
          7 10 5 1 2.</_></rects>
      <tilted>0</tilted></_>
    <_>
      <rects>
        <_>
          7 10 10 6 -1.</_>
        <_>
          7 10 5 3 2.</_>
        <_>
          12 13 5 3 2.</_></rects>
      <tilted>0</tilted></_>
    <_>
      <rects>
        <_>
          7 12 6 3 -1.</_>
        <_>
          9 12 2 3 3.</_></rects>
      <tilted>0</tilted></_>
    <_>
      <rects>
        <_>
          7 12 10 10 -1.</_>
        <_>
          7 12 5 5 2.</_>
        <_>
          12 17 5 5 2.</_></rects>
      <tilted>0</tilted></_>
    <_>
      <rects>
        <_>
          7 13 3 8 -1.</_>
        <_>
          7 17 3 4 2.</_></rects>
      <tilted>0</tilted></_>
    <_>
      <rects>
        <_>
          7 15 8 3 -1.</_>
        <_>
          7 16 8 1 3.</_></rects>
      <tilted>0</tilted></_>
    <_>
      <rects>
        <_>
          7 17 10 3 -1.</_>
        <_>
          7 18 10 1 3.</_></rects>
      <tilted>0</tilted></_>
    <_>
      <rects>
        <_>
          7 19 7 3 -1.</_>
        <_>
          7 20 7 1 3.</_></rects>
      <tilted>0</tilted></_>
    <_>
      <rects>
        <_>
          8 0 1 2 -1.</_>
        <_>
          8 1 1 1 2.</_></rects>
      <tilted>0</tilted></_>
    <_>
      <rects>
        <_>
          8 0 1 9 -1.</_>
        <_>
          8 3 1 3 3.</_></rects>
      <tilted>0</tilted></_>
    <_>
      <rects>
        <_>
          8 1 3 7 -1.</_>
        <_>
          9 1 1 7 3.</_></rects>
      <tilted>0</tilted></_>
    <_>
      <rects>
        <_>
          8 4 4 7 -1.</_>
        <_>
          10 4 2 7 2.</_></rects>
      <tilted>0</tilted></_>
    <_>
      <rects>
        <_>
          8 4 16 6 -1.</_>
        <_>
          8 4 8 3 2.</_>
        <_>
          16 7 8 3 2.</_></rects>
      <tilted>0</tilted></_>
    <_>
      <rects>
        <_>
          8 8 10 2 -1.</_>
        <_>
          13 8 5 2 2.</_></rects>
      <tilted>0</tilted></_>
    <_>
      <rects>
        <_>
          8 8 5 6 -1.</_>
        <_>
          8 10 5 2 3.</_></rects>
      <tilted>0</tilted></_>
    <_>
      <rects>
        <_>
          8 8 5 12 -1.</_>
        <_>
          8 14 5 6 2.</_></rects>
      <tilted>0</tilted></_>
    <_>
      <rects>
        <_>
          8 8 5 14 -1.</_>
        <_>
          8 15 5 7 2.</_></rects>
      <tilted>0</tilted></_>
    <_>
      <rects>
        <_>
          8 9 10 8 -1.</_>
        <_>
          8 9 5 4 2.</_>
        <_>
          13 13 5 4 2.</_></rects>
      <tilted>0</tilted></_>
    <_>
      <rects>
        <_>
          8 16 8 8 -1.</_>
        <_>
          8 16 4 4 2.</_>
        <_>
          12 20 4 4 2.</_></rects>
      <tilted>0</tilted></_>
    <_>
      <rects>
        <_>
          8 18 7 3 -1.</_>
        <_>
          8 19 7 1 3.</_></rects>
      <tilted>0</tilted></_>
    <_>
      <rects>
        <_>
          8 18 10 3 -1.</_>
        <_>
          8 19 10 1 3.</_></rects>
      <tilted>0</tilted></_>
    <_>
      <rects>
        <_>
          9 0 3 8 -1.</_>
        <_>
          10 0 1 8 3.</_></rects>
      <tilted>0</tilted></_>
    <_>
      <rects>
        <_>
          9 0 10 2 -1.</_>
        <_>
          9 1 10 1 2.</_></rects>
      <tilted>0</tilted></_>
    <_>
      <rects>
        <_>
          9 1 3 6 -1.</_>
        <_>
          10 1 1 6 3.</_></rects>
      <tilted>0</tilted></_>
    <_>
      <rects>
        <_>
          9 2 6 8 -1.</_>
        <_>
          11 2 2 8 3.</_></rects>
      <tilted>0</tilted></_>
    <_>
      <rects>
        <_>
          9 5 4 16 -1.</_>
        <_>
          9 13 4 8 2.</_></rects>
      <tilted>0</tilted></_>
    <_>
      <rects>
        <_>
          9 6 2 3 -1.</_>
        <_>
          10 6 1 3 2.</_></rects>
      <tilted>0</tilted></_>
    <_>
      <rects>
        <_>
          9 6 6 4 -1.</_>
        <_>
          11 6 2 4 3.</_></rects>
      <tilted>0</tilted></_>
    <_>
      <rects>
        <_>
          9 6 4 2 -1.</_>
        <_>
          9 7 4 1 2.</_></rects>
      <tilted>0</tilted></_>
    <_>
      <rects>
        <_>
          9 7 6 3 -1.</_>
        <_>
          11 7 2 3 3.</_></rects>
      <tilted>0</tilted></_>
    <_>
      <rects>
        <_>
          9 7 2 12 -1.</_>
        <_>
          9 13 2 6 2.</_></rects>
      <tilted>0</tilted></_>
    <_>
      <rects>
        <_>
          9 7 6 9 -1.</_>
        <_>
          11 7 2 9 3.</_></rects>
      <tilted>0</tilted></_>
    <_>
      <rects>
        <_>
          9 7 6 6 -1.</_>
        <_>
          9 9 6 2 3.</_></rects>
      <tilted>0</tilted></_>
    <_>
      <rects>
        <_>
          9 8 3 6 -1.</_>
        <_>
          10 8 1 6 3.</_></rects>
      <tilted>0</tilted></_>
    <_>
      <rects>
        <_>
          9 8 6 2 -1.</_>
        <_>
          11 8 2 2 3.</_></rects>
      <tilted>0</tilted></_>
    <_>
      <rects>
        <_>
          9 8 6 3 -1.</_>
        <_>
          11 8 2 3 3.</_></rects>
      <tilted>0</tilted></_>
    <_>
      <rects>
        <_>
          9 8 6 13 -1.</_>
        <_>
          11 8 2 13 3.</_></rects>
      <tilted>0</tilted></_>
    <_>
      <rects>
        <_>
          9 9 4 4 -1.</_>
        <_>
          9 9 2 2 2.</_>
        <_>
          11 11 2 2 2.</_></rects>
      <tilted>0</tilted></_>
    <_>
      <rects>
        <_>
          9 9 2 10 -1.</_>
        <_>
          9 14 2 5 2.</_></rects>
      <tilted>0</tilted></_>
    <_>
      <rects>
        <_>
          9 9 5 15 -1.</_>
        <_>
          9 14 5 5 3.</_></rects>
      <tilted>0</tilted></_>
    <_>
      <rects>
        <_>
          9 9 11 12 -1.</_>
        <_>
          9 13 11 4 3.</_></rects>
      <tilted>0</tilted></_>
    <_>
      <rects>
        <_>
          9 9 13 2 -1.</_>
        <_>
          9 10 13 1 2.</_></rects>
      <tilted>0</tilted></_>
    <_>
      <rects>
        <_>
          9 11 1 6 -1.</_>
        <_>
          9 14 1 3 2.</_></rects>
      <tilted>0</tilted></_>
    <_>
      <rects>
        <_>
          9 13 2 10 -1.</_>
        <_>
          9 18 2 5 2.</_></rects>
      <tilted>0</tilted></_>
    <_>
      <rects>
        <_>
          9 14 10 3 -1.</_>
        <_>
          9 15 10 1 3.</_></rects>
      <tilted>0</tilted></_>
    <_>
      <rects>
        <_>
          9 15 6 3 -1.</_>
        <_>
          9 16 6 1 3.</_></rects>
      <tilted>0</tilted></_>
    <_>
      <rects>
        <_>
          9 16 4 3 -1.</_>
        <_>
          9 17 4 1 3.</_></rects>
      <tilted>0</tilted></_>
    <_>
      <rects>
        <_>
          9 16 5 3 -1.</_>
        <_>
          9 17 5 1 3.</_></rects>
      <tilted>0</tilted></_>
    <_>
      <rects>
        <_>
          9 16 6 3 -1.</_>
        <_>
          9 17 6 1 3.</_></rects>
      <tilted>0</tilted></_>
    <_>
      <rects>
        <_>
          9 16 7 3 -1.</_>
        <_>
          9 17 7 1 3.</_></rects>
      <tilted>0</tilted></_>
    <_>
      <rects>
        <_>
          9 16 9 3 -1.</_>
        <_>
          9 17 9 1 3.</_></rects>
      <tilted>0</tilted></_>
    <_>
      <rects>
        <_>
          9 17 6 3 -1.</_>
        <_>
          9 18 6 1 3.</_></rects>
      <tilted>0</tilted></_>
    <_>
      <rects>
        <_>
          9 17 7 3 -1.</_>
        <_>
          9 18 7 1 3.</_></rects>
      <tilted>0</tilted></_>
    <_>
      <rects>
        <_>
          9 18 1 6 -1.</_>
        <_>
          9 21 1 3 2.</_></rects>
      <tilted>0</tilted></_>
    <_>
      <rects>
        <_>
          9 18 6 6 -1.</_>
        <_>
          9 18 3 3 2.</_>
        <_>
          12 21 3 3 2.</_></rects>
      <tilted>0</tilted></_>
    <_>
      <rects>
        <_>
          10 0 3 9 -1.</_>
        <_>
          11 0 1 9 3.</_></rects>
      <tilted>0</tilted></_>
    <_>
      <rects>
        <_>
          10 1 3 6 -1.</_>
        <_>
          11 1 1 6 3.</_></rects>
      <tilted>0</tilted></_>
    <_>
      <rects>
        <_>
          10 3 2 8 -1.</_>
        <_>
          10 3 1 4 2.</_>
        <_>
          11 7 1 4 2.</_></rects>
      <tilted>0</tilted></_>
    <_>
      <rects>
        <_>
          10 3 14 6 -1.</_>
        <_>
          10 3 7 3 2.</_>
        <_>
          17 6 7 3 2.</_></rects>
      <tilted>0</tilted></_>
    <_>
      <rects>
        <_>
          10 4 2 8 -1.</_>
        <_>
          10 4 1 4 2.</_>
        <_>
          11 8 1 4 2.</_></rects>
      <tilted>0</tilted></_>
    <_>
      <rects>
        <_>
          10 5 12 1 -1.</_>
        <_>
          14 5 4 1 3.</_></rects>
      <tilted>0</tilted></_>
    <_>
      <rects>
        <_>
          10 6 5 12 -1.</_>
        <_>
          10 12 5 6 2.</_></rects>
      <tilted>0</tilted></_>
    <_>
      <rects>
        <_>
          10 7 2 3 -1.</_>
        <_>
          11 7 1 3 2.</_></rects>
      <tilted>0</tilted></_>
    <_>
      <rects>
        <_>
          10 7 2 4 -1.</_>
        <_>
          11 7 1 4 2.</_></rects>
      <tilted>0</tilted></_>
    <_>
      <rects>
        <_>
          10 8 5 10 -1.</_>
        <_>
          10 13 5 5 2.</_></rects>
      <tilted>0</tilted></_>
    <_>
      <rects>
        <_>
          10 9 2 1 -1.</_>
        <_>
          11 9 1 1 2.</_></rects>
      <tilted>0</tilted></_>
    <_>
      <rects>
        <_>
          10 9 2 6 -1.</_>
        <_>
          11 9 1 6 2.</_></rects>
      <tilted>0</tilted></_>
    <_>
      <rects>
        <_>
          10 9 11 2 -1.</_>
        <_>
          10 10 11 1 2.</_></rects>
      <tilted>0</tilted></_>
    <_>
      <rects>
        <_>
          10 9 12 2 -1.</_>
        <_>
          10 10 12 1 2.</_></rects>
      <tilted>0</tilted></_>
    <_>
      <rects>
        <_>
          10 10 5 3 -1.</_>
        <_>
          10 11 5 1 3.</_></rects>
      <tilted>0</tilted></_>
    <_>
      <rects>
        <_>
          10 10 11 12 -1.</_>
        <_>
          10 14 11 4 3.</_></rects>
      <tilted>0</tilted></_>
    <_>
      <rects>
        <_>
          10 11 4 2 -1.</_>
        <_>
          10 12 4 1 2.</_></rects>
      <tilted>0</tilted></_>
    <_>
      <rects>
        <_>
          10 14 4 3 -1.</_>
        <_>
          10 15 4 1 3.</_></rects>
      <tilted>0</tilted></_>
    <_>
      <rects>
        <_>
          10 15 13 9 -1.</_>
        <_>
          10 18 13 3 3.</_></rects>
      <tilted>0</tilted></_>
    <_>
      <rects>
        <_>
          10 16 4 3 -1.</_>
        <_>
          10 17 4 1 3.</_></rects>
      <tilted>0</tilted></_>
    <_>
      <rects>
        <_>
          10 16 5 3 -1.</_>
        <_>
          10 17 5 1 3.</_></rects>
      <tilted>0</tilted></_>
    <_>
      <rects>
        <_>
          10 17 3 3 -1.</_>
        <_>
          10 18 3 1 3.</_></rects>
      <tilted>0</tilted></_>
    <_>
      <rects>
        <_>
          10 17 4 2 -1.</_>
        <_>
          10 18 4 1 2.</_></rects>
      <tilted>0</tilted></_>
    <_>
      <rects>
        <_>
          10 17 4 3 -1.</_>
        <_>
          10 18 4 1 3.</_></rects>
      <tilted>0</tilted></_>
    <_>
      <rects>
        <_>
          10 18 4 3 -1.</_>
        <_>
          10 19 4 1 3.</_></rects>
      <tilted>0</tilted></_>
    <_>
      <rects>
        <_>
          10 18 5 3 -1.</_>
        <_>
          10 19 5 1 3.</_></rects>
      <tilted>0</tilted></_>
    <_>
      <rects>
        <_>
          10 18 6 3 -1.</_>
        <_>
          10 19 6 1 3.</_></rects>
      <tilted>0</tilted></_>
    <_>
      <rects>
        <_>
          10 21 3 3 -1.</_>
        <_>
          11 21 1 3 3.</_></rects>
      <tilted>0</tilted></_>
    <_>
      <rects>
        <_>
          11 3 3 1 -1.</_>
        <_>
          12 3 1 1 3.</_></rects>
      <tilted>0</tilted></_>
    <_>
      <rects>
        <_>
          11 3 3 4 -1.</_>
        <_>
          12 3 1 4 3.</_></rects>
      <tilted>0</tilted></_>
    <_>
      <rects>
        <_>
          11 4 3 3 -1.</_>
        <_>
          12 4 1 3 3.</_></rects>
      <tilted>0</tilted></_>
    <_>
      <rects>
